#############################################################################
## Copyright (c) 1996, Carnegie Mellon University, Cambridge University,
## Ronald Rosenfeld and Philip Clarkson
## Version 3, Copyright (c) 2006, Carnegie Mellon University 
## Contributors includes Wen Xu, Ananlada Chotimongkol, 
## David Huggins-Daines, Arthur Chan and Alan Black 
#############################################################################
=============================================================================
===============  This file was produced by the CMU-Cambridge  ===============
===============     Statistical Language Modeling Toolkit     ===============
=============================================================================
This is a 3-gram language model, based on a vocabulary of 4342 words,
  which begins "</s>", "<s>", "A"...
This is a CLOSED-vocabulary model
  (OOVs eliminated from training data and are forbidden in test data)
Witten Bell discounting was applied.
This file is in the ARPA-standard format introduced by Doug Paul.

p(wd3|wd1,wd2)= if(trigram exists)           p_3(wd1,wd2,wd3)
                else if(bigram w1,w2 exists) bo_wt_2(w1,w2)*p(wd3|wd2)
                else                         p(wd3|w2)

p(wd2|wd1)= if(bigram exists) p_2(wd1,wd2)
            else              bo_wt_1(wd1)*p_1(wd2)

All probs and back-off weights (bo_wt) are given in log10 form.

Data formats:

Beginning of data mark: \data\
ngram 1=nr            # number of 1-grams
ngram 2=nr            # number of 2-grams
ngram 3=nr            # number of 3-grams

\1-grams:
p_1     wd_1 bo_wt_1
\2-grams:
p_2     wd_1 wd_2 bo_wt_2
\3-grams:
p_3     wd_1 wd_2 wd_3 

end of data mark: \end\

\data\
ngram 1=4342
ngram 2=8680
ngram 3=4340

\1-grams:
-98.7286 </s>	-3.6989
-98.7286 <s>	-99.9990
-3.6989 A	-0.3010
-3.6989 ABANDON	-0.3010
-3.6989 ABILITY	-0.3010
-3.6989 ABLE	-0.3010
-3.6989 ABORTION	-0.3010
-3.3979 ABOUT	-0.4771
-3.3979 ABOVE	-0.4771
-3.6989 ABROAD	-0.3010
-3.6989 ABSENCE	-0.3010
-3.6989 ABSOLUTE	-0.3010
-3.6989 ABSOLUTELY	-0.3010
-3.6989 ABSORB	-0.3010
-3.6989 ABSTRACT	-0.3010
-3.3979 ABUSE	-0.4771
-3.6989 ACADEMIC	-0.3010
-3.6989 ACCELERATE	-0.3010
-3.6989 ACCENT	-0.3010
-3.6989 ACCEPT	-0.3010
-3.6989 ACCEPTABLE	-0.3010
-3.6989 ACCEPTANCE	-0.3010
-3.3979 ACCESS	-0.4771
-3.6989 ACCESSIBLE	-0.3010
-3.6989 ACCIDENT	-0.3010
-3.6989 ACCOMMODATE	-0.3010
-3.6989 ACCOMPANY	-0.3010
-3.6989 ACCOMPLISH	-0.3010
-3.6989 ACCOMPLISHMENT	-0.3010
-3.6989 ACCORDING	-0.3010
-3.3979 ACCOUNT	-0.4771
-3.6989 ACCOUNTABILITY	-0.3010
-3.6989 ACCOUNTING	-0.3010
-3.6989 ACCURACY	-0.3010
-3.6989 ACCURATE	-0.3010
-3.6989 ACCURATELY	-0.3010
-3.6989 ACCUSATION	-0.3010
-3.6989 ACCUSE	-0.3010
-3.6989 ACHIEVE	-0.3010
-3.6989 ACHIEVEMENT	-0.3010
-3.6989 ACID	-0.3010
-3.6989 ACKNOWLEDGE	-0.3010
-3.6989 ACQUIRE	-0.3010
-3.6989 ACQUISITION	-0.3010
-3.3979 ACROSS	-0.4771
-3.3979 ACT	-0.4771
-3.6989 ACTION	-0.3010
-3.6989 ACTIVE	-0.3010
-3.6989 ACTIVELY	-0.3010
-3.6989 ACTIVIST	-0.3010
-3.6989 ACTIVITY	-0.3010
-3.6989 ACTOR	-0.3010
-3.6989 ACTRESS	-0.3010
-3.6989 ACTUAL	-0.3010
-3.6989 ACTUALLY	-0.3010
-3.6989 AD	-0.3010
-3.6989 ADAPT	-0.3010
-3.6989 ADD	-0.3010
-3.6989 ADDED	-0.3010
-3.3979 ADDITION	-0.4771
-3.6989 ADDITIONAL	-0.3010
-3.3979 ADDRESS	-0.4771
-3.6989 ADEQUATE	-0.3010
-3.6989 ADJUST	-0.3010
-3.6989 ADJUSTMENT	-0.3010
-3.6989 ADMINISTER	-0.3010
-3.6989 ADMINISTRATION	-0.3010
-3.6989 ADMINISTRATIVE	-0.3010
-3.6989 ADMINISTRATOR	-0.3010
-3.6989 ADMIRE	-0.3010
-3.6989 ADMISSION	-0.3010
-3.6989 ADMIT	-0.3010
-3.6989 ADOLESCENT	-0.3010
-3.6989 ADOPT	-0.3010
-3.6989 ADOPTION	-0.3010
-3.6989 ADULT	-0.3010
-3.3979 ADVANCE	-0.4771
-3.6989 ADVANCED	-0.3010
-3.6989 ADVANTAGE	-0.3010
-3.6989 ADVENTURE	-0.3010
-3.6989 ADVERTISING	-0.3010
-3.6989 ADVICE	-0.3010
-3.6989 ADVISE	-0.3010
-3.6989 ADVISER	-0.3010
-3.3979 ADVOCATE	-0.4771
-3.6989 AESTHETIC	-0.3010
-3.6989 AFFAIR	-0.3010
-3.6989 AFFECT	-0.3010
-3.6989 AFFORD	-0.3010
-3.6989 AFRAID	-0.3010
-3.6989 AFRICAN	-0.3010
-3.6989 AFRICAN-AMERICAN	-0.3010
-3.3979 AFTER	-0.4771
-3.6989 AFTERNOON	-0.3010
-3.6989 AFTERWARD	-0.3010
-3.6989 AGAIN	-0.3010
-3.6989 AGAINST	-0.3010
-3.3979 AGE	-0.4771
-3.6989 AGENCY	-0.3010
-3.6989 AGENDA	-0.3010
-3.6989 AGENT	-0.3010
-3.6989 AGGRESSION	-0.3010
-3.6989 AGGRESSIVE	-0.3010
-3.6989 AGO	-0.3010
-3.6989 AGREE	-0.3010
-3.6989 AGREEMENT	-0.3010
-3.6989 AGRICULTURAL	-0.3010
-3.6989 AGRICULTURE	-0.3010
-3.6989 AH	-0.3010
-3.3979 AHEAD	-0.4771
-3.3979 AID	-0.4771
-3.6989 AIDE	-0.3010
-3.6989 AIDS	-0.3010
-3.3979 AIM	-0.4771
-3.6989 AIR	-0.3010
-3.6989 AIRCRAFT	-0.3010
-3.6989 AIRLINE	-0.3010
-3.6989 AIRPLANE	-0.3010
-3.6989 AIRPORT	-0.3010
-3.6989 AISLE	-0.3010
-3.6989 ALARM	-0.3010
-3.6989 ALBUM	-0.3010
-3.6989 ALCOHOL	-0.3010
-3.6989 ALIEN	-0.3010
-3.6989 ALIKE	-0.3010
-3.6989 ALIVE	-0.3010
-3.3979 ALL	-0.4771
-3.6989 ALLEGATION	-0.3010
-3.6989 ALLEGED	-0.3010
-3.6989 ALLEGEDLY	-0.3010
-3.6989 ALLEY	-0.3010
-3.6989 ALLIANCE	-0.3010
-3.6989 ALLOW	-0.3010
-3.6989 ALLY	-0.3010
-3.6989 ALMOST	-0.3010
-3.3979 ALONE	-0.4771
-3.3979 ALONG	-0.4771
-3.6989 ALONGSIDE	-0.3010
-3.6989 ALREADY	-0.3010
-3.6989 ALSO	-0.3010
-3.6989 ALTER	-0.3010
-3.3979 ALTERNATIVE	-0.4771
-3.6989 ALTHOUGH	-0.3010
-3.6989 ALTOGETHER	-0.3010
-3.6989 ALUMINUM	-0.3010
-3.6989 ALWAYS	-0.3010
-3.6989 AM	-0.3010
-3.6989 AMAZING	-0.3010
-3.6989 AMBASSADOR	-0.3010
-3.6989 AMBITION	-0.3010
-3.6989 AMBITIOUS	-0.3010
-3.6989 AMENDMENT	-0.3010
-3.3979 AMERICAN	-0.4771
-3.6989 AMID	-0.3010
-3.6989 AMONG	-0.3010
-3.6989 AMOUNT	-0.3010
-3.6989 ANALYSIS	-0.3010
-3.6989 ANALYST	-0.3010
-3.6989 ANALYZE	-0.3010
-3.6989 ANCESTOR	-0.3010
-3.6989 ANCIENT	-0.3010
-3.6989 AND	-0.3010
-3.6989 AND/OR	-0.3010
-3.6989 ANGEL	-0.3010
-3.6989 ANGER	-0.3010
-3.6989 ANGLE	-0.3010
-3.6989 ANGRY	-0.3010
-3.6989 ANIMAL	-0.3010
-3.6989 ANKLE	-0.3010
-3.6989 ANNIVERSARY	-0.3010
-3.6989 ANNOUNCE	-0.3010
-3.6989 ANNOUNCEMENT	-0.3010
-3.6989 ANNUAL	-0.3010
-3.6989 ANNUALLY	-0.3010
-3.6989 ANONYMOUS	-0.3010
-3.3979 ANOTHER	-0.4771
-3.3979 ANSWER	-0.4771
-3.6989 ANTICIPATE	-0.3010
-3.6989 ANXIETY	-0.3010
-3.6989 ANXIOUS	-0.3010
-3.3979 ANY	-0.4771
-3.6989 ANYBODY	-0.3010
-3.6989 ANYMORE	-0.3010
-3.6989 ANYONE	-0.3010
-3.6989 ANYTHING	-0.3010
-3.6989 ANYWAY	-0.3010
-3.6989 ANYWHERE	-0.3010
-3.3979 APART	-0.4771
-3.6989 APARTMENT	-0.3010
-3.6989 APOLOGIZE	-0.3010
-3.6989 APPARENT	-0.3010
-3.6989 APPARENTLY	-0.3010
-3.3979 APPEAL	-0.4771
-3.6989 APPEAR	-0.3010
-3.6989 APPEARANCE	-0.3010
-3.6989 APPLE	-0.3010
-3.6989 APPLICATION	-0.3010
-3.6989 APPLY	-0.3010
-3.6989 APPOINT	-0.3010
-3.6989 APPOINTMENT	-0.3010
-3.6989 APPRECIATE	-0.3010
-3.6989 APPRECIATION	-0.3010
-3.3979 APPROACH	-0.4771
-3.6989 APPROPRIATE	-0.3010
-3.6989 APPROVAL	-0.3010
-3.6989 APPROVE	-0.3010
-3.6989 APPROXIMATELY	-0.3010
-3.3979 ARAB	-0.4771
-3.6989 ARCHITECT	-0.3010
-3.6989 ARCHITECTURE	-0.3010
-3.6989 AREA	-0.3010
-3.6989 ARENA	-0.3010
-3.6989 ARGUE	-0.3010
-3.6989 ARGUMENT	-0.3010
-3.6989 ARISE	-0.3010
-3.3979 ARM	-0.4771
-3.6989 ARMED	-0.3010
-3.6989 ARMY	-0.3010
-3.3979 AROUND	-0.4771
-3.6989 ARRANGE	-0.3010
-3.6989 ARRANGEMENT	-0.3010
-3.6989 ARRAY	-0.3010
-3.3979 ARREST	-0.4771
-3.6989 ARRIVAL	-0.3010
-3.6989 ARRIVE	-0.3010
-3.6989 ARROW	-0.3010
-3.6989 ART	-0.3010
-3.6989 ARTICLE	-0.3010
-3.6989 ARTICULATE	-0.3010
-3.6989 ARTIFACT	-0.3010
-3.6989 ARTIFICIAL	-0.3010
-3.6989 ARTIST	-0.3010
-3.6989 ARTISTIC	-0.3010
-3.2218 AS	-0.6021
-3.6989 ASH	-0.3010
-3.6989 ASIAN	-0.3010
-3.6989 ASIDE	-0.3010
-3.6989 ASK	-0.3010
-3.6989 ASLEEP	-0.3010
-3.6989 ASPECT	-0.3010
-3.6989 ASS	-0.3010
-3.6989 ASSAULT	-0.3010
-3.6989 ASSEMBLE	-0.3010
-3.6989 ASSEMBLY	-0.3010
-3.6989 ASSERT	-0.3010
-3.6989 ASSESS	-0.3010
-3.6989 ASSESSMENT	-0.3010
-3.6989 ASSET	-0.3010
-3.6989 ASSIGN	-0.3010
-3.6989 ASSIGNMENT	-0.3010
-3.6989 ASSIST	-0.3010
-3.6989 ASSISTANCE	-0.3010
-3.3979 ASSISTANT	-0.4771
-3.2218 ASSOCIATE	-0.6021
-3.6989 ASSOCIATED	-0.3010
-3.6989 ASSOCIATION	-0.3010
-3.6989 ASSUME	-0.3010
-3.6989 ASSUMPTION	-0.3010
-3.6989 ASSURE	-0.3010
-3.6989 ASTRONOMER	-0.3010
-3.6989 AT	-0.3010
-3.6989 ATHLETE	-0.3010
-3.6989 ATHLETIC	-0.3010
-3.6989 ATMOSPHERE	-0.3010
-3.6989 ATOP	-0.3010
-3.6989 ATTACH	-0.3010
-3.3979 ATTACK	-0.4771
-3.3979 ATTEMPT	-0.4771
-3.6989 ATTEND	-0.3010
-3.6989 ATTENDANCE	-0.3010
-3.6989 ATTENTION	-0.3010
-3.6989 ATTITUDE	-0.3010
-3.6989 ATTORNEY	-0.3010
-3.6989 ATTRACT	-0.3010
-3.6989 ATTRACTION	-0.3010
-3.6989 ATTRACTIVE	-0.3010
-3.6989 ATTRIBUTE	-0.3010
-3.6989 AUCTION	-0.3010
-3.6989 AUDIENCE	-0.3010
-3.6989 AUNT	-0.3010
-3.6989 AUTHOR	-0.3010
-3.6989 AUTHORITY	-0.3010
-3.6989 AUTHORIZE	-0.3010
-3.6989 AUTO	-0.3010
-3.6989 AUTOMATIC	-0.3010
-3.6989 AUTOMATICALLY	-0.3010
-3.6989 AUTOMOBILE	-0.3010
-3.6989 AUTONOMY	-0.3010
-3.6989 AVAILABILITY	-0.3010
-3.6989 AVAILABLE	-0.3010
-3.2218 AVERAGE	-0.6021
-3.6989 AVOID	-0.3010
-3.6989 AWAIT	-0.3010
-3.6989 AWAKE	-0.3010
-3.3979 AWARD	-0.4771
-3.6989 AWARE	-0.3010
-3.6989 AWARENESS	-0.3010
-3.3979 AWAY	-0.4771
-3.6989 AWFUL	-0.3010
-3.6989 BABY	-0.3010
-3.2218 BACK	-0.6021
-3.6989 BACKGROUND	-0.3010
-3.6989 BACKYARD	-0.3010
-3.6989 BACTERIA	-0.3010
-3.6989 BAD	-0.3010
-3.6989 BADLY	-0.3010
-3.6989 BAG	-0.3010
-3.6989 BAKE	-0.3010
-3.3979 BALANCE	-0.4771
-3.6989 BALANCED	-0.3010
-3.6989 BALL	-0.3010
-3.6989 BALLOON	-0.3010
-3.6989 BALLOT	-0.3010
-3.3979 BAN	-0.4771
-3.6989 BANANA	-0.3010
-3.6989 BAND	-0.3010
-3.6989 BANK	-0.3010
-3.6989 BANKER	-0.3010
-3.6989 BANKING	-0.3010
-3.6989 BAR	-0.3010
-3.6989 BARE	-0.3010
-3.6989 BARELY	-0.3010
-3.6989 BARN	-0.3010
-3.6989 BARREL	-0.3010
-3.6989 BARRIER	-0.3010
-3.3979 BASE	-0.4771
-3.6989 BASEBALL	-0.3010
-3.6989 BASEMENT	-0.3010
-3.6989 BASIC	-0.3010
-3.6989 BASICALLY	-0.3010
-3.6989 BASIS	-0.3010
-3.6989 BASKET	-0.3010
-3.6989 BASKETBALL	-0.3010
-3.6989 BAT	-0.3010
-3.6989 BATH	-0.3010
-3.6989 BATHROOM	-0.3010
-3.6989 BATTERY	-0.3010
-3.3979 BATTLE	-0.4771
-3.6989 BAY	-0.3010
-3.6989 BE	-0.3010
-3.6989 BEACH	-0.3010
-3.6989 BEAM	-0.3010
-3.6989 BEAN	-0.3010
-3.3979 BEAR	-0.4771
-3.6989 BEARD	-0.3010
-3.6989 BEAST	-0.3010
-3.3979 BEAT	-0.4771
-3.6989 BEAUTIFUL	-0.3010
-3.6989 BEAUTY	-0.3010
-3.3979 BECAUSE	-0.4771
-3.6989 BECOME	-0.3010
-3.6989 BED	-0.3010
-3.6989 BEDROOM	-0.3010
-3.6989 BEE	-0.3010
-3.6989 BEEF	-0.3010
-3.6989 BEER	-0.3010
-3.2218 BEFORE	-0.6021
-3.6989 BEG	-0.3010
-3.6989 BEGIN	-0.3010
-3.6989 BEGINNING	-0.3010
-3.6989 BEHALF	-0.3010
-3.6989 BEHAVE	-0.3010
-3.6989 BEHAVIOR	-0.3010
-3.6989 BEHAVIORAL	-0.3010
-3.3979 BEHIND	-0.4771
-3.6989 BEING	-0.3010
-3.6989 BELIEF	-0.3010
-3.6989 BELIEVE	-0.3010
-3.6989 BELL	-0.3010
-3.6989 BELLY	-0.3010
-3.6989 BELONG	-0.3010
-3.3979 BELOW	-0.4771
-3.6989 BELT	-0.3010
-3.6989 BENCH	-0.3010
-3.6989 BEND	-0.3010
-3.6989 BENEATH	-0.3010
-3.3979 BENEFIT	-0.4771
-3.6989 BESIDE	-0.3010
-3.3979 BESIDES	-0.4771
-3.3979 BEST	-0.4771
-3.3979 BET	-0.4771
-3.3979 BETTER	-0.4771
-3.6989 BETWEEN	-0.3010
-3.3979 BEYOND	-0.4771
-3.6989 BIAS	-0.3010
-3.6989 BIBLE	-0.3010
-3.6989 BICYCLE	-0.3010
-3.6989 BID	-0.3010
-3.6989 BIG	-0.3010
-3.6989 BIKE	-0.3010
-3.6989 BILL	-0.3010
-3.6989 BILLION	-0.3010
-3.6989 BIND	-0.3010
-3.6989 BIOGRAPHY	-0.3010
-3.6989 BIOLOGICAL	-0.3010
-3.6989 BIOLOGY	-0.3010
-3.6989 BIRD	-0.3010
-3.6989 BIRTH	-0.3010
-3.6989 BIRTHDAY	-0.3010
-3.6989 BISHOP	-0.3010
-3.3979 BIT	-0.4771
-3.3979 BITE	-0.4771
-3.6989 BITTER	-0.3010
-3.3979 BLACK	-0.4771
-3.6989 BLADE	-0.3010
-3.6989 BLAME	-0.3010
-3.6989 BLANK	-0.3010
-3.6989 BLANKET	-0.3010
-3.6989 BLAST	-0.3010
-3.6989 BLEND	-0.3010
-3.6989 BLESS	-0.3010
-3.6989 BLESSING	-0.3010
-3.6989 BLIND	-0.3010
-3.6989 BLINK	-0.3010
-3.3979 BLOCK	-0.4771
-3.6989 BLOND	-0.3010
-3.6989 BLOOD	-0.3010
-3.6989 BLOODY	-0.3010
-3.3979 BLOW	-0.4771
-3.3979 BLUE	-0.4771
-3.6989 BOARD	-0.3010
-3.6989 BOAST	-0.3010
-3.6989 BOAT	-0.3010
-3.6989 BODY	-0.3010
-3.6989 BOIL	-0.3010
-3.6989 BOLD	-0.3010
-3.6989 BOLT	-0.3010
-3.3979 BOMB	-0.4771
-3.6989 BOMBING	-0.3010
-3.6989 BOND	-0.3010
-3.6989 BONE	-0.3010
-3.6989 BONUS	-0.3010
-3.6989 BOOK	-0.3010
-3.6989 BOOM	-0.3010
-3.6989 BOOST	-0.3010
-3.6989 BOOT	-0.3010
-3.6989 BOOTH	-0.3010
-3.6989 BORDER	-0.3010
-3.6989 BORING	-0.3010
-3.6989 BORN	-0.3010
-3.6989 BORROW	-0.3010
-3.6989 BOSS	-0.3010
-3.3979 BOTH	-0.4771
-3.6989 BOTHER	-0.3010
-3.6989 BOTTLE	-0.3010
-3.3979 BOTTOM	-0.4771
-3.6989 BOUNCE	-0.3010
-3.6989 BOUNDARY	-0.3010
-3.3979 BOW	-0.4771
-3.6989 BOWL	-0.3010
-3.6989 BOX	-0.3010
-3.6989 BOY	-0.3010
-3.6989 BOYFRIEND	-0.3010
-3.6989 BRAIN	-0.3010
-3.6989 BRAKE	-0.3010
-3.6989 BRANCH	-0.3010
-3.6989 BRAND	-0.3010
-3.6989 BRAVE	-0.3010
-3.6989 BREAD	-0.3010
-3.3979 BREAK	-0.4771
-3.6989 BREAKFAST	-0.3010
-3.6989 BREAST	-0.3010
-3.6989 BREATH	-0.3010
-3.6989 BREATHE	-0.3010
-3.6989 BREATHING	-0.3010
-3.6989 BREEZE	-0.3010
-3.6989 BRICK	-0.3010
-3.6989 BRIDE	-0.3010
-3.6989 BRIDGE	-0.3010
-3.6989 BRIEF	-0.3010
-3.6989 BRIEFLY	-0.3010
-3.6989 BRIGHT	-0.3010
-3.6989 BRILLIANT	-0.3010
-3.6989 BRING	-0.3010
-3.6989 BRITISH	-0.3010
-3.6989 BROAD	-0.3010
-3.3979 BROADCAST	-0.4771
-3.6989 BROKEN	-0.3010
-3.6989 BROKER	-0.3010
-3.6989 BRONZE	-0.3010
-3.6989 BROTHER	-0.3010
-3.6989 BROWN	-0.3010
-3.3979 BRUSH	-0.4771
-3.6989 BRUTAL	-0.3010
-3.6989 BUBBLE	-0.3010
-3.6989 BUCK	-0.3010
-3.6989 BUCKET	-0.3010
-3.6989 BUDDY	-0.3010
-3.6989 BUDGET	-0.3010
-3.6989 BUG	-0.3010
-3.6989 BUILD	-0.3010
-3.6989 BUILDER	-0.3010
-3.6989 BUILDING	-0.3010
-3.6989 BULB	-0.3010
-3.6989 BULK	-0.3010
-3.6989 BULL	-0.3010
-3.6989 BULLET	-0.3010
-3.6989 BUNCH	-0.3010
-3.6989 BURDEN	-0.3010
-3.6989 BUREAU	-0.3010
-3.6989 BURN	-0.3010
-3.6989 BURNING	-0.3010
-3.6989 BURST	-0.3010
-3.6989 BURY	-0.3010
-3.6989 BUS	-0.3010
-3.6989 BUSH	-0.3010
-3.6989 BUSINESS	-0.3010
-3.6989 BUSINESSMAN	-0.3010
-3.6989 BUSY	-0.3010
-3.3979 BUT	-0.4771
-3.6989 BUTT	-0.3010
-3.6989 BUTTER	-0.3010
-3.6989 BUTTERFLY	-0.3010
-3.6989 BUTTON	-0.3010
-3.6989 BUY	-0.3010
-3.6989 BUYER	-0.3010
-3.3979 BY	-0.4771
-3.6989 CAB	-0.3010
-3.6989 CABIN	-0.3010
-3.6989 CABINET	-0.3010
-3.6989 CABLE	-0.3010
-3.6989 CAGE	-0.3010
-3.6989 CAKE	-0.3010
-3.6989 CALCULATE	-0.3010
-3.6989 CALCULATION	-0.3010
-3.6989 CALENDAR	-0.3010
-3.3979 CALL	-0.4771
-3.3979 CALM	-0.4771
-3.6989 CAMERA	-0.3010
-3.6989 CAMP	-0.3010
-3.6989 CAMPAIGN	-0.3010
-3.6989 CAMPUS	-0.3010
-3.3979 CAN	-0.4771
-3.6989 CANADIAN	-0.3010
-3.6989 CANCEL	-0.3010
-3.6989 CANCER	-0.3010
-3.6989 CANDIDATE	-0.3010
-3.6989 CANDLE	-0.3010
-3.6989 CANDY	-0.3010
-3.6989 CANVAS	-0.3010
-3.6989 CAP	-0.3010
-3.6989 CAPABILITY	-0.3010
-3.6989 CAPABLE	-0.3010
-3.6989 CAPACITY	-0.3010
-3.6989 CAPITAL	-0.3010
-3.6989 CAPTAIN	-0.3010
-3.6989 CAPTURE	-0.3010
-3.6989 CAR	-0.3010
-3.6989 CARBOHYDRATE	-0.3010
-3.6989 CARBON	-0.3010
-3.6989 CARD	-0.3010
-3.3979 CARE	-0.4771
-3.6989 CAREER	-0.3010
-3.6989 CAREFUL	-0.3010
-3.6989 CAREFULLY	-0.3010
-3.6989 CARGO	-0.3010
-3.6989 CARPET	-0.3010
-3.6989 CARRIER	-0.3010
-3.6989 CARROT	-0.3010
-3.6989 CARRY	-0.3010
-3.6989 CART	-0.3010
-3.6989 CARTOON	-0.3010
-3.6989 CARVE	-0.3010
-3.3979 CASE	-0.4771
-3.6989 CASH	-0.3010
-3.6989 CASINO	-0.3010
-3.3979 CAST	-0.4771
-3.6989 CASUAL	-0.3010
-3.6989 CASUALTY	-0.3010
-3.6989 CAT	-0.3010
-3.6989 CATALOG	-0.3010
-3.3979 CATCH	-0.4771
-3.6989 CATEGORY	-0.3010
-3.3979 CATHOLIC	-0.4771
-3.6989 CATTLE	-0.3010
-3.3979 CAUSE	-0.4771
-3.6989 CAVE	-0.3010
-3.6989 CEASE	-0.3010
-3.6989 CEILING	-0.3010
-3.6989 CELEBRATE	-0.3010
-3.6989 CELEBRATION	-0.3010
-3.6989 CELEBRITY	-0.3010
-3.6989 CELL	-0.3010
-3.6989 CEMETERY	-0.3010
-3.6989 CENTER	-0.3010
-3.6989 CENTRAL	-0.3010
-3.6989 CENTURY	-0.3010
-3.6989 CEO	-0.3010
-3.6989 CEREMONY	-0.3010
-3.6989 CERTAIN	-0.3010
-3.6989 CERTAINLY	-0.3010
-3.6989 CHAIN	-0.3010
-3.6989 CHAIR	-0.3010
-3.6989 CHAIRMAN	-0.3010
-3.3979 CHALLENGE	-0.4771
-3.6989 CHAMBER	-0.3010
-3.6989 CHAMPION	-0.3010
-3.6989 CHAMPIONSHIP	-0.3010
-3.6989 CHANCE	-0.3010
-3.3979 CHANGE	-0.4771
-3.6989 CHANGING	-0.3010
-3.6989 CHANNEL	-0.3010
-3.6989 CHAOS	-0.3010
-3.6989 CHAPTER	-0.3010
-3.6989 CHARACTER	-0.3010
-3.6989 CHARACTERISTIC	-0.3010
-3.6989 CHARACTERIZE	-0.3010
-3.2218 CHARGE	-0.6021
-3.6989 CHARITY	-0.3010
-3.6989 CHARM	-0.3010
-3.6989 CHART	-0.3010
-3.6989 CHARTER	-0.3010
-3.6989 CHASE	-0.3010
-3.6989 CHEAP	-0.3010
-3.6989 CHEAT	-0.3010
-3.3979 CHECK	-0.4771
-3.6989 CHEEK	-0.3010
-3.6989 CHEER	-0.3010
-3.6989 CHEESE	-0.3010
-3.6989 CHEF	-0.3010
-3.3979 CHEMICAL	-0.4771
-3.6989 CHEMISTRY	-0.3010
-3.6989 CHEST	-0.3010
-3.6989 CHEW	-0.3010
-3.6989 CHICKEN	-0.3010
-3.3979 CHIEF	-0.4771
-3.6989 CHILD	-0.3010
-3.6989 CHILDHOOD	-0.3010
-3.6989 CHILL	-0.3010
-3.6989 CHIN	-0.3010
-3.6989 CHINESE	-0.3010
-3.6989 CHIP	-0.3010
-3.6989 CHOCOLATE	-0.3010
-3.6989 CHOICE	-0.3010
-3.6989 CHOLESTEROL	-0.3010
-3.6989 CHOOSE	-0.3010
-3.6989 CHOP	-0.3010
-3.3979 CHRISTIAN	-0.4771
-3.6989 CHRISTIANITY	-0.3010
-3.6989 CHRISTMAS	-0.3010
-3.6989 CHRONIC	-0.3010
-3.6989 CHUNK	-0.3010
-3.6989 CHURCH	-0.3010
-3.6989 CIGARETTE	-0.3010
-3.3979 CIRCLE	-0.4771
-3.6989 CIRCUIT	-0.3010
-3.6989 CIRCUMSTANCE	-0.3010
-3.6989 CITE	-0.3010
-3.6989 CITIZEN	-0.3010
-3.6989 CITIZENSHIP	-0.3010
-3.6989 CITY	-0.3010
-3.6989 CIVIC	-0.3010
-3.6989 CIVIL	-0.3010
-3.3979 CIVILIAN	-0.4771
-3.6989 CIVILIZATION	-0.3010
-3.3979 CLAIM	-0.4771
-3.6989 CLASS	-0.3010
-3.6989 CLASSIC	-0.3010
-3.6989 CLASSICAL	-0.3010
-3.6989 CLASSIFY	-0.3010
-3.6989 CLASSROOM	-0.3010
-3.6989 CLAY	-0.3010
-3.3979 CLEAN	-0.4771
-3.3979 CLEAR	-0.4771
-3.6989 CLEARLY	-0.3010
-3.6989 CLERK	-0.3010
-3.6989 CLICK	-0.3010
-3.6989 CLIENT	-0.3010
-3.6989 CLIFF	-0.3010
-3.6989 CLIMATE	-0.3010
-3.6989 CLIMB	-0.3010
-3.6989 CLING	-0.3010
-3.6989 CLINIC	-0.3010
-3.6989 CLINICAL	-0.3010
-3.6989 CLIP	-0.3010
-3.6989 CLOCK	-0.3010
-3.2218 CLOSE	-0.6021
-3.6989 CLOSED	-0.3010
-3.6989 CLOSELY	-0.3010
-3.6989 CLOSER	-0.3010
-3.6989 CLOSEST	-0.3010
-3.6989 CLOSET	-0.3010
-3.6989 CLOTH	-0.3010
-3.6989 CLOTHES	-0.3010
-3.6989 CLOTHING	-0.3010
-3.6989 CLOUD	-0.3010
-3.6989 CLUB	-0.3010
-3.6989 CLUE	-0.3010
-3.6989 CLUSTER	-0.3010
-3.3979 COACH	-0.4771
-3.6989 COAL	-0.3010
-3.6989 COALITION	-0.3010
-3.6989 COAST	-0.3010
-3.6989 COASTAL	-0.3010
-3.6989 COAT	-0.3010
-3.6989 COCAINE	-0.3010
-3.6989 CODE	-0.3010
-3.6989 COFFEE	-0.3010
-3.6989 COGNITIVE	-0.3010
-3.6989 COIN	-0.3010
-3.3979 COLD	-0.4771
-3.6989 COLLABORATION	-0.3010
-3.3979 COLLAPSE	-0.4771
-3.6989 COLLAR	-0.3010
-3.6989 COLLEAGUE	-0.3010
-3.6989 COLLECT	-0.3010
-3.6989 COLLECTION	-0.3010
-3.6989 COLLECTIVE	-0.3010
-3.6989 COLLECTOR	-0.3010
-3.6989 COLLEGE	-0.3010
-3.6989 COLONIAL	-0.3010
-3.6989 COLONY	-0.3010
-3.3979 COLOR	-0.4771
-3.6989 COLORFUL	-0.3010
-3.6989 COLUMN	-0.3010
-3.6989 COLUMNIST	-0.3010
-3.6989 COMBAT	-0.3010
-3.6989 COMBINATION	-0.3010
-3.6989 COMBINE	-0.3010
-3.6989 COMBINED	-0.3010
-3.6989 COME	-0.3010
-3.6989 COMEDY	-0.3010
-3.6989 COMFORT	-0.3010
-3.6989 COMFORTABLE	-0.3010
-3.6989 COMING	-0.3010
-3.3979 COMMAND	-0.4771
-3.6989 COMMANDER	-0.3010
-3.3979 COMMENT	-0.4771
-3.6989 COMMERCIAL	-0.3010
-3.6989 COMMISSION	-0.3010
-3.6989 COMMISSIONER	-0.3010
-3.6989 COMMIT	-0.3010
-3.6989 COMMITMENT	-0.3010
-3.6989 COMMITTEE	-0.3010
-3.6989 COMMODITY	-0.3010
-3.6989 COMMON	-0.3010
-3.6989 COMMONLY	-0.3010
-3.6989 COMMUNICATE	-0.3010
-3.6989 COMMUNICATION	-0.3010
-3.6989 COMMUNITY	-0.3010
-3.6989 COMPANION	-0.3010
-3.6989 COMPANY	-0.3010
-3.6989 COMPARABLE	-0.3010
-3.6989 COMPARE	-0.3010
-3.6989 COMPARISON	-0.3010
-3.6989 COMPEL	-0.3010
-3.6989 COMPELLING	-0.3010
-3.6989 COMPENSATION	-0.3010
-3.6989 COMPETE	-0.3010
-3.6989 COMPETITION	-0.3010
-3.6989 COMPETITIVE	-0.3010
-3.6989 COMPETITOR	-0.3010
-3.6989 COMPLAIN	-0.3010
-3.6989 COMPLAINT	-0.3010
-3.3979 COMPLETE	-0.4771
-3.6989 COMPLETELY	-0.3010
-3.3979 COMPLEX	-0.4771
-3.6989 COMPLEXITY	-0.3010
-3.6989 COMPLIANCE	-0.3010
-3.6989 COMPLICATED	-0.3010
-3.6989 COMPLY	-0.3010
-3.6989 COMPONENT	-0.3010
-3.6989 COMPOSE	-0.3010
-3.6989 COMPOSITION	-0.3010
-3.6989 COMPOUND	-0.3010
-3.6989 COMPREHENSIVE	-0.3010
-3.6989 COMPRISE	-0.3010
-3.3979 COMPROMISE	-0.4771
-3.6989 COMPUTER	-0.3010
-3.6989 CONCEDE	-0.3010
-3.6989 CONCEIVE	-0.3010
-3.6989 CONCENTRATE	-0.3010
-3.6989 CONCENTRATION	-0.3010
-3.6989 CONCEPT	-0.3010
-3.6989 CONCEPTION	-0.3010
-3.3979 CONCERN	-0.4771
-3.6989 CONCERNED	-0.3010
-3.6989 CONCERNING	-0.3010
-3.6989 CONCERT	-0.3010
-3.6989 CONCLUDE	-0.3010
-3.6989 CONCLUSION	-0.3010
-3.6989 CONCRETE	-0.3010
-3.6989 CONDEMN	-0.3010
-3.6989 CONDITION	-0.3010
-3.3979 CONDUCT	-0.4771
-3.6989 CONFERENCE	-0.3010
-3.6989 CONFESS	-0.3010
-3.6989 CONFESSION	-0.3010
-3.6989 CONFIDENCE	-0.3010
-3.6989 CONFIDENT	-0.3010
-3.6989 CONFIRM	-0.3010
-3.6989 CONFLICT	-0.3010
-3.6989 CONFRONT	-0.3010
-3.6989 CONFRONTATION	-0.3010
-3.6989 CONFUSE	-0.3010
-3.6989 CONFUSION	-0.3010
-3.6989 CONGRESS	-0.3010
-3.6989 CONGRESSIONAL	-0.3010
-3.6989 CONNECT	-0.3010
-3.6989 CONNECTION	-0.3010
-3.6989 CONSCIENCE	-0.3010
-3.6989 CONSCIOUS	-0.3010
-3.6989 CONSCIOUSNESS	-0.3010
-3.6989 CONSECUTIVE	-0.3010
-3.6989 CONSENSUS	-0.3010
-3.6989 CONSENT	-0.3010
-3.6989 CONSEQUENCE	-0.3010
-3.6989 CONSEQUENTLY	-0.3010
-3.6989 CONSERVATION	-0.3010
-3.3979 CONSERVATIVE	-0.4771
-3.6989 CONSIDER	-0.3010
-3.6989 CONSIDERABLE	-0.3010
-3.6989 CONSIDERABLY	-0.3010
-3.6989 CONSIDERATION	-0.3010
-3.6989 CONSIST	-0.3010
-3.6989 CONSISTENT	-0.3010
-3.6989 CONSISTENTLY	-0.3010
-3.6989 CONSPIRACY	-0.3010
-3.6989 CONSTANT	-0.3010
-3.6989 CONSTANTLY	-0.3010
-3.6989 CONSTITUTE	-0.3010
-3.6989 CONSTITUTION	-0.3010
-3.6989 CONSTITUTIONAL	-0.3010
-3.6989 CONSTRAINT	-0.3010
-3.6989 CONSTRUCT	-0.3010
-3.6989 CONSTRUCTION	-0.3010
-3.6989 CONSULT	-0.3010
-3.6989 CONSULTANT	-0.3010
-3.6989 CONSUME	-0.3010
-3.6989 CONSUMER	-0.3010
-3.6989 CONSUMPTION	-0.3010
-3.3979 CONTACT	-0.4771
-3.6989 CONTAIN	-0.3010
-3.6989 CONTAINER	-0.3010
-3.6989 CONTEMPLATE	-0.3010
-3.6989 CONTEMPORARY	-0.3010
-3.6989 CONTEND	-0.3010
-3.3979 CONTENT	-0.4771
-3.6989 CONTEST	-0.3010
-3.6989 CONTEXT	-0.3010
-3.6989 CONTINENT	-0.3010
-3.6989 CONTINUE	-0.3010
-3.6989 CONTINUED	-0.3010
-3.6989 CONTINUING	-0.3010
-3.6989 CONTINUOUS	-0.3010
-3.6989 CONTRACT	-0.3010
-3.6989 CONTRACTOR	-0.3010
-3.6989 CONTRAST	-0.3010
-3.6989 CONTRIBUTE	-0.3010
-3.6989 CONTRIBUTION	-0.3010
-3.6989 CONTRIBUTOR	-0.3010
-3.3979 CONTROL	-0.4771
-3.6989 CONTROVERSIAL	-0.3010
-3.6989 CONTROVERSY	-0.3010
-3.6989 CONVENIENCE	-0.3010
-3.6989 CONVENTION	-0.3010
-3.6989 CONVENTIONAL	-0.3010
-3.6989 CONVERSATION	-0.3010
-3.6989 CONVERSION	-0.3010
-3.6989 CONVERT	-0.3010
-3.6989 CONVEY	-0.3010
-3.6989 CONVICT	-0.3010
-3.6989 CONVICTION	-0.3010
-3.6989 CONVINCE	-0.3010
-3.6989 CONVINCED	-0.3010
-3.3979 COOK	-0.4771
-3.6989 COOKIE	-0.3010
-3.6989 COOKING	-0.3010
-3.3979 COOL	-0.4771
-3.6989 COOPERATE	-0.3010
-3.6989 COOPERATION	-0.3010
-3.6989 COOPERATIVE	-0.3010
-3.6989 COORDINATE	-0.3010
-3.6989 COORDINATOR	-0.3010
-3.6989 COP	-0.3010
-3.6989 COPE	-0.3010
-3.3979 COPY	-0.4771
-3.6989 CORD	-0.3010
-3.6989 CORE	-0.3010
-3.6989 CORN	-0.3010
-3.6989 CORNER	-0.3010
-3.6989 CORPORATE	-0.3010
-3.6989 CORPORATION	-0.3010
-3.3979 CORRECT	-0.4771
-3.6989 CORRECTLY	-0.3010
-3.6989 CORRELATION	-0.3010
-3.6989 CORRESPONDENT	-0.3010
-3.6989 CORRIDOR	-0.3010
-3.6989 CORRUPTION	-0.3010
-3.3979 COST	-0.4771
-3.6989 COSTLY	-0.3010
-3.6989 COSTUME	-0.3010
-3.6989 COTTAGE	-0.3010
-3.6989 COTTON	-0.3010
-3.6989 COUCH	-0.3010
-3.6989 COULD	-0.3010
-3.6989 COUNCIL	-0.3010
-3.6989 COUNSEL	-0.3010
-3.6989 COUNSELING	-0.3010
-3.6989 COUNSELOR	-0.3010
-3.3979 COUNT	-0.4771
-3.3979 COUNTER	-0.4771
-3.6989 COUNTERPART	-0.3010
-3.6989 COUNTRY	-0.3010
-3.6989 COUNTY	-0.3010
-3.6989 COUP	-0.3010
-3.6989 COUPLE	-0.3010
-3.6989 COURAGE	-0.3010
-3.3979 COURSE	-0.4771
-3.6989 COURT	-0.3010
-3.6989 COURTROOM	-0.3010
-3.6989 COUSIN	-0.3010
-3.3979 COVER	-0.4771
-3.6989 COVERAGE	-0.3010
-3.6989 COW	-0.3010
-3.3979 CRACK	-0.4771
-3.6989 CRAFT	-0.3010
-3.3979 CRASH	-0.4771
-3.6989 CRAWL	-0.3010
-3.6989 CRAZY	-0.3010
-3.6989 CREAM	-0.3010
-3.6989 CREATE	-0.3010
-3.6989 CREATION	-0.3010
-3.6989 CREATIVE	-0.3010
-3.6989 CREATIVITY	-0.3010
-3.6989 CREATURE	-0.3010
-3.6989 CREDIBILITY	-0.3010
-3.3979 CREDIT	-0.4771
-3.6989 CREW	-0.3010
-3.6989 CRIME	-0.3010
-3.3979 CRIMINAL	-0.4771
-3.6989 CRISIS	-0.3010
-3.6989 CRITERIA	-0.3010
-3.6989 CRITIC	-0.3010
-3.6989 CRITICAL	-0.3010
-3.6989 CRITICISM	-0.3010
-3.6989 CRITICIZE	-0.3010
-3.6989 CROP	-0.3010
-3.3979 CROSS	-0.4771
-3.3979 CROWD	-0.4771
-3.6989 CROWDED	-0.3010
-3.6989 CRUCIAL	-0.3010
-3.6989 CRUEL	-0.3010
-3.6989 CRUISE	-0.3010
-3.6989 CRUSH	-0.3010
-3.3979 CRY	-0.4771
-3.6989 CRYSTAL	-0.3010
-3.6989 CUBAN	-0.3010
-3.6989 CUE	-0.3010
-3.6989 CULTURAL	-0.3010
-3.6989 CULTURE	-0.3010
-3.6989 CUP	-0.3010
-3.3979 CURE	-0.4771
-3.6989 CURIOSITY	-0.3010
-3.6989 CURIOUS	-0.3010
-3.6989 CURRENCY	-0.3010
-3.6989 CURRENT	-0.3010
-3.6989 CURRENTLY	-0.3010
-3.6989 CURRICULUM	-0.3010
-3.6989 CURTAIN	-0.3010
-3.6989 CURVE	-0.3010
-3.6989 CUSTODY	-0.3010
-3.6989 CUSTOM	-0.3010
-3.6989 CUSTOMER	-0.3010
-3.3979 CUT	-0.4771
-3.6989 CUTE	-0.3010
-3.6989 CYCLE	-0.3010
-3.6989 DAD	-0.3010
-3.3979 DAILY	-0.4771
-3.6989 DAM	-0.3010
-3.3979 DAMAGE	-0.4771
-3.6989 DAMN	-0.3010
-3.3979 DANCE	-0.4771
-3.6989 DANCER	-0.3010
-3.6989 DANCING	-0.3010
-3.6989 DANGER	-0.3010
-3.6989 DANGEROUS	-0.3010
-3.6989 DARE	-0.3010
-3.3979 DARK	-0.4771
-3.6989 DARKNESS	-0.3010
-3.6989 DATA	-0.3010
-3.6989 DATABASE	-0.3010
-3.3979 DATE	-0.4771
-3.6989 DAUGHTER	-0.3010
-3.6989 DAWN	-0.3010
-3.6989 DAY	-0.3010
-3.6989 DEAD	-0.3010
-3.6989 DEADLINE	-0.3010
-3.6989 DEADLY	-0.3010
-3.3979 DEAL	-0.4771
-3.6989 DEALER	-0.3010
-3.6989 DEAR	-0.3010
-3.6989 DEATH	-0.3010
-3.3979 DEBATE	-0.4771
-3.6989 DEBRIS	-0.3010
-3.6989 DEBT	-0.3010
-3.6989 DEBUT	-0.3010
-3.6989 DECADE	-0.3010
-3.6989 DECENT	-0.3010
-3.6989 DECIDE	-0.3010
-3.6989 DECISION	-0.3010
-3.6989 DECK	-0.3010
-3.6989 DECLARE	-0.3010
-3.3979 DECLINE	-0.4771
-3.6989 DECORATE	-0.3010
-3.6989 DECREASE	-0.3010
-3.6989 DEDICATE	-0.3010
-3.6989 DEEM	-0.3010
-3.3979 DEEP	-0.4771
-3.6989 DEEPLY	-0.3010
-3.6989 DEER	-0.3010
-3.3979 DEFEAT	-0.4771
-3.6989 DEFEND	-0.3010
-3.6989 DEFENDANT	-0.3010
-3.6989 DEFENDER	-0.3010
-3.6989 DEFENSE	-0.3010
-3.6989 DEFENSIVE	-0.3010
-3.6989 DEFICIT	-0.3010
-3.6989 DEFINE	-0.3010
-3.6989 DEFINITELY	-0.3010
-3.6989 DEFINITION	-0.3010
-3.6989 DEGREE	-0.3010
-3.3979 DELAY	-0.4771
-3.6989 DELIBERATELY	-0.3010
-3.6989 DELICATE	-0.3010
-3.6989 DELIGHT	-0.3010
-3.6989 DELIVER	-0.3010
-3.6989 DELIVERY	-0.3010
-3.3979 DEMAND	-0.4771
-3.6989 DEMOCRACY	-0.3010
-3.6989 DEMOCRAT	-0.3010
-3.6989 DEMOCRATIC	-0.3010
-3.6989 DEMOGRAPHIC	-0.3010
-3.6989 DEMONSTRATE	-0.3010
-3.6989 DEMONSTRATION	-0.3010
-3.6989 DENIAL	-0.3010
-3.6989 DENSE	-0.3010
-3.6989 DENSITY	-0.3010
-3.6989 DENY	-0.3010
-3.6989 DEPART	-0.3010
-3.6989 DEPARTMENT	-0.3010
-3.6989 DEPARTURE	-0.3010
-3.6989 DEPEND	-0.3010
-3.6989 DEPENDENT	-0.3010
-3.6989 DEPENDING	-0.3010
-3.6989 DEPICT	-0.3010
-3.6989 DEPLOY	-0.3010
-3.6989 DEPOSIT	-0.3010
-3.6989 DEPRESSED	-0.3010
-3.6989 DEPRESSION	-0.3010
-3.6989 DEPTH	-0.3010
-3.6989 DEPUTY	-0.3010
-3.6989 DERIVE	-0.3010
-3.6989 DESCEND	-0.3010
-3.6989 DESCRIBE	-0.3010
-3.6989 DESCRIPTION	-0.3010
-3.6989 DESERT	-0.3010
-3.6989 DESERVE	-0.3010
-3.3979 DESIGN	-0.4771
-3.6989 DESIGNER	-0.3010
-3.3979 DESIRE	-0.4771
-3.6989 DESK	-0.3010
-3.6989 DESPERATE	-0.3010
-3.6989 DESPERATELY	-0.3010
-3.6989 DESPITE	-0.3010
-3.6989 DESSERT	-0.3010
-3.6989 DESTINATION	-0.3010
-3.6989 DESTROY	-0.3010
-3.6989 DESTRUCTION	-0.3010
-3.6989 DETAIL	-0.3010
-3.6989 DETAILED	-0.3010
-3.6989 DETECT	-0.3010
-3.6989 DETECTIVE	-0.3010
-3.6989 DETERMINATION	-0.3010
-3.6989 DETERMINE	-0.3010
-3.6989 DEVASTATING	-0.3010
-3.6989 DEVELOP	-0.3010
-3.6989 DEVELOPER	-0.3010
-3.6989 DEVELOPING	-0.3010
-3.6989 DEVELOPMENT	-0.3010
-3.6989 DEVELOPMENTAL	-0.3010
-3.6989 DEVICE	-0.3010
-3.6989 DEVIL	-0.3010
-3.6989 DEVOTE	-0.3010
-3.6989 DIABETES	-0.3010
-3.6989 DIAGNOSE	-0.3010
-3.6989 DIAGNOSIS	-0.3010
-3.6989 DIALOGUE	-0.3010
-3.6989 DIAMOND	-0.3010
-3.6989 DIARY	-0.3010
-3.6989 DIE	-0.3010
-3.6989 DIET	-0.3010
-3.6989 DIFFER	-0.3010
-3.6989 DIFFERENCE	-0.3010
-3.6989 DIFFERENT	-0.3010
-3.6989 DIFFERENTLY	-0.3010
-3.6989 DIFFICULT	-0.3010
-3.6989 DIFFICULTY	-0.3010
-3.6989 DIG	-0.3010
-3.6989 DIGITAL	-0.3010
-3.6989 DIGNITY	-0.3010
-3.6989 DILEMMA	-0.3010
-3.6989 DIMENSION	-0.3010
-3.6989 DIMINISH	-0.3010
-3.6989 DINING	-0.3010
-3.6989 DINNER	-0.3010
-3.6989 DIP	-0.3010
-3.6989 DIPLOMAT	-0.3010
-3.6989 DIPLOMATIC	-0.3010
-3.3979 DIRECT	-0.4771
-3.6989 DIRECTION	-0.3010
-3.6989 DIRECTLY	-0.3010
-3.6989 DIRECTOR	-0.3010
-3.6989 DIRT	-0.3010
-3.6989 DIRTY	-0.3010
-3.6989 DISABILITY	-0.3010
-3.6989 DISABLED	-0.3010
-3.6989 DISAGREE	-0.3010
-3.6989 DISAPPEAR	-0.3010
-3.6989 DISAPPOINTED	-0.3010
-3.6989 DISAPPOINTMENT	-0.3010
-3.6989 DISASTER	-0.3010
-3.6989 DISC	-0.3010
-3.6989 DISCIPLINE	-0.3010
-3.6989 DISCLOSE	-0.3010
-3.6989 DISCOUNT	-0.3010
-3.6989 DISCOURAGE	-0.3010
-3.6989 DISCOURSE	-0.3010
-3.6989 DISCOVER	-0.3010
-3.6989 DISCOVERY	-0.3010
-3.6989 DISCRIMINATION	-0.3010
-3.6989 DISCUSS	-0.3010
-3.6989 DISCUSSION	-0.3010
-3.6989 DISEASE	-0.3010
-3.6989 DISH	-0.3010
-3.6989 DISK	-0.3010
-3.6989 DISMISS	-0.3010
-3.6989 DISORDER	-0.3010
-3.3979 DISPLAY	-0.4771
-3.6989 DISPUTE	-0.3010
-3.6989 DISSOLVE	-0.3010
-3.6989 DISTANCE	-0.3010
-3.6989 DISTANT	-0.3010
-3.6989 DISTINCT	-0.3010
-3.6989 DISTINCTION	-0.3010
-3.6989 DISTINCTIVE	-0.3010
-3.6989 DISTINGUISH	-0.3010
-3.6989 DISTRACT	-0.3010
-3.6989 DISTRIBUTE	-0.3010
-3.6989 DISTRIBUTION	-0.3010
-3.6989 DISTRICT	-0.3010
-3.6989 DISTURB	-0.3010
-3.6989 DISTURBING	-0.3010
-3.6989 DIVERSE	-0.3010
-3.6989 DIVERSITY	-0.3010
-3.6989 DIVIDE	-0.3010
-3.6989 DIVINE	-0.3010
-3.6989 DIVISION	-0.3010
-3.3979 DIVORCE	-0.4771
-3.6989 DNA	-0.3010
-3.6989 DO	-0.3010
-3.6989 DOCK	-0.3010
-3.6989 DOCTOR	-0.3010
-3.6989 DOCTRINE	-0.3010
-3.3979 DOCUMENT	-0.4771
-3.6989 DOCUMENTARY	-0.3010
-3.6989 DOG	-0.3010
-3.6989 DOLL	-0.3010
-3.6989 DOMAIN	-0.3010
-3.6989 DOMESTIC	-0.3010
-3.6989 DOMINANT	-0.3010
-3.6989 DOMINATE	-0.3010
-3.6989 DONATE	-0.3010
-3.6989 DONATION	-0.3010
-3.6989 DONOR	-0.3010
-3.6989 DOOR	-0.3010
-3.6989 DOORWAY	-0.3010
-3.6989 DOSE	-0.3010
-3.6989 DOT	-0.3010
-3.3979 DOUBLE	-0.4771
-3.3979 DOUBT	-0.4771
-3.6989 DOUGH	-0.3010
-3.3979 DOWN	-0.4771
-3.3979 DOWNTOWN	-0.4771
-3.6989 DOZEN	-0.3010
-3.3979 DRAFT	-0.4771
-3.6989 DRAG	-0.3010
-3.6989 DRAIN	-0.3010
-3.6989 DRAMA	-0.3010
-3.6989 DRAMATIC	-0.3010
-3.6989 DRAMATICALLY	-0.3010
-3.6989 DRAW	-0.3010
-3.6989 DRAWER	-0.3010
-3.6989 DRAWING	-0.3010
-3.3979 DREAM	-0.4771
-3.3979 DRESS	-0.4771
-3.6989 DRIED	-0.3010
-3.6989 DRIFT	-0.3010
-3.6989 DRILL	-0.3010
-3.3979 DRINK	-0.4771
-3.6989 DRINKING	-0.3010
-3.3979 DRIVE	-0.4771
-3.6989 DRIVER	-0.3010
-3.6989 DRIVEWAY	-0.3010
-3.6989 DRIVING	-0.3010
-3.3979 DROP	-0.4771
-3.6989 DROWN	-0.3010
-3.6989 DRUG	-0.3010
-3.6989 DRUM	-0.3010
-3.6989 DRUNK	-0.3010
-3.3979 DRY	-0.4771
-3.6989 DUCK	-0.3010
-3.3979 DUE	-0.4771
-3.6989 DUMB	-0.3010
-3.6989 DUMP	-0.3010
-3.6989 DURING	-0.3010
-3.6989 DUST	-0.3010
-3.6989 DUTCH	-0.3010
-3.6989 DUTY	-0.3010
-3.6989 DYING	-0.3010
-3.6989 DYNAMIC	-0.3010
-3.6989 DYNAMICS	-0.3010
-3.6989 E-MAIL	-0.3010
-3.3979 EACH	-0.4771
-3.6989 EAGER	-0.3010
-3.6989 EAR	-0.3010
-3.3979 EARLY	-0.4771
-3.6989 EARN	-0.3010
-3.6989 EARNINGS	-0.3010
-3.6989 EARTH	-0.3010
-3.6989 EARTHQUAKE	-0.3010
-3.3979 EASE	-0.4771
-3.6989 EASILY	-0.3010
-3.6989 EAST	-0.3010
-3.6989 EASTERN	-0.3010
-3.3979 EASY	-0.4771
-3.6989 EAT	-0.3010
-3.6989 EATING	-0.3010
-3.6989 ECHO	-0.3010
-3.6989 ECOLOGICAL	-0.3010
-3.6989 ECONOMIC	-0.3010
-3.6989 ECONOMICALLY	-0.3010
-3.6989 ECONOMICS	-0.3010
-3.6989 ECONOMIST	-0.3010
-3.6989 ECONOMY	-0.3010
-3.6989 ECOSYSTEM	-0.3010
-3.6989 EDGE	-0.3010
-3.6989 EDIT	-0.3010
-3.6989 EDITION	-0.3010
-3.6989 EDITOR	-0.3010
-3.6989 EDUCATE	-0.3010
-3.6989 EDUCATION	-0.3010
-3.6989 EDUCATIONAL	-0.3010
-3.6989 EDUCATOR	-0.3010
-3.6989 EFFECT	-0.3010
-3.6989 EFFECTIVE	-0.3010
-3.6989 EFFECTIVELY	-0.3010
-3.6989 EFFECTIVENESS	-0.3010
-3.6989 EFFICIENCY	-0.3010
-3.6989 EFFICIENT	-0.3010
-3.6989 EFFORT	-0.3010
-3.6989 EGG	-0.3010
-3.6989 EGO	-0.3010
-3.6989 EIGHT	-0.3010
-3.6989 EIGHTH	-0.3010
-3.3979 EITHER	-0.4771
-3.6989 ELABORATE	-0.3010
-3.6989 ELBOW	-0.3010
-3.6989 ELDER	-0.3010
-3.6989 ELDERLY	-0.3010
-3.6989 ELECT	-0.3010
-3.6989 ELECTION	-0.3010
-3.6989 ELECTRIC	-0.3010
-3.6989 ELECTRICAL	-0.3010
-3.6989 ELECTRICITY	-0.3010
-3.6989 ELECTRONIC	-0.3010
-3.6989 ELECTRONICS	-0.3010
-3.6989 ELEGANT	-0.3010
-3.6989 ELEMENT	-0.3010
-3.6989 ELEMENTARY	-0.3010
-3.6989 ELEPHANT	-0.3010
-3.6989 ELEVATOR	-0.3010
-3.6989 ELEVEN	-0.3010
-3.6989 ELIGIBLE	-0.3010
-3.6989 ELIMINATE	-0.3010
-3.6989 ELITE	-0.3010
-3.6989 ELSE	-0.3010
-3.6989 ELSEWHERE	-0.3010
-3.6989 EMBARRASSED	-0.3010
-3.6989 EMBRACE	-0.3010
-3.6989 EMERGE	-0.3010
-3.6989 EMERGENCY	-0.3010
-3.6989 EMERGING	-0.3010
-3.6989 EMISSION	-0.3010
-3.6989 EMOTION	-0.3010
-3.6989 EMOTIONAL	-0.3010
-3.6989 EMOTIONALLY	-0.3010
-3.6989 EMPHASIS	-0.3010
-3.6989 EMPHASIZE	-0.3010
-3.6989 EMPIRE	-0.3010
-3.6989 EMPLOY	-0.3010
-3.6989 EMPLOYEE	-0.3010
-3.6989 EMPLOYER	-0.3010
-3.6989 EMPLOYMENT	-0.3010
-3.6989 EMPTY	-0.3010
-3.6989 ENABLE	-0.3010
-3.6989 ENACT	-0.3010
-3.3979 ENCOUNTER	-0.4771
-3.6989 ENCOURAGE	-0.3010
-3.6989 ENCOURAGING	-0.3010
-3.3979 END	-0.4771
-3.6989 ENDLESS	-0.3010
-3.6989 ENDORSE	-0.3010
-3.6989 ENDURE	-0.3010
-3.6989 ENEMY	-0.3010
-3.6989 ENERGY	-0.3010
-3.6989 ENFORCE	-0.3010
-3.6989 ENFORCEMENT	-0.3010
-3.6989 ENGAGE	-0.3010
-3.6989 ENGAGEMENT	-0.3010
-3.6989 ENGINE	-0.3010
-3.6989 ENGINEER	-0.3010
-3.6989 ENGINEERING	-0.3010
-3.3979 ENGLISH	-0.4771
-3.6989 ENHANCE	-0.3010
-3.6989 ENJOY	-0.3010
-3.6989 ENORMOUS	-0.3010
-3.3979 ENOUGH	-0.4771
-3.6989 ENROLL	-0.3010
-3.6989 ENSURE	-0.3010
-3.6989 ENTER	-0.3010
-3.6989 ENTERPRISE	-0.3010
-3.6989 ENTERTAINMENT	-0.3010
-3.6989 ENTHUSIASM	-0.3010
-3.6989 ENTIRE	-0.3010
-3.6989 ENTIRELY	-0.3010
-3.6989 ENTITLE	-0.3010
-3.6989 ENTITY	-0.3010
-3.6989 ENTRANCE	-0.3010
-3.6989 ENTREPRENEUR	-0.3010
-3.6989 ENTRY	-0.3010
-3.6989 ENVELOPE	-0.3010
-3.6989 ENVIRONMENT	-0.3010
-3.6989 ENVIRONMENTAL	-0.3010
-3.6989 ENVISION	-0.3010
-3.6989 EPIDEMIC	-0.3010
-3.6989 EPISODE	-0.3010
-3.6989 EQUAL	-0.3010
-3.6989 EQUALITY	-0.3010
-3.6989 EQUALLY	-0.3010
-3.6989 EQUATION	-0.3010
-3.6989 EQUIP	-0.3010
-3.6989 EQUIPMENT	-0.3010
-3.6989 EQUITY	-0.3010
-3.6989 EQUIVALENT	-0.3010
-3.6989 ERA	-0.3010
-3.6989 ERROR	-0.3010
-3.3979 ESCAPE	-0.4771
-3.6989 ESPECIALLY	-0.3010
-3.6989 ESSAY	-0.3010
-3.6989 ESSENCE	-0.3010
-3.6989 ESSENTIAL	-0.3010
-3.6989 ESSENTIALLY	-0.3010
-3.6989 ESTABLISH	-0.3010
-3.6989 ESTABLISHMENT	-0.3010
-3.6989 ESTATE	-0.3010
-3.3979 ESTIMATE	-0.4771
-3.6989 ESTIMATED	-0.3010
-3.6989 ETC	-0.3010
-3.6989 ETHICAL	-0.3010
-3.6989 ETHICS	-0.3010
-3.6989 ETHNIC	-0.3010
-3.3979 EUROPEAN	-0.4771
-3.6989 EVALUATE	-0.3010
-3.6989 EVALUATION	-0.3010
-3.3979 EVEN	-0.4771
-3.6989 EVENING	-0.3010
-3.6989 EVENT	-0.3010
-3.6989 EVENTUALLY	-0.3010
-3.6989 EVER	-0.3010
-3.6989 EVERY	-0.3010
-3.6989 EVERYBODY	-0.3010
-3.6989 EVERYDAY	-0.3010
-3.6989 EVERYONE	-0.3010
-3.6989 EVERYTHING	-0.3010
-3.6989 EVERYWHERE	-0.3010
-3.6989 EVIDENCE	-0.3010
-3.6989 EVIDENT	-0.3010
-3.3979 EVIL	-0.4771
-3.6989 EVOLUTION	-0.3010
-3.6989 EVOLVE	-0.3010
-3.6989 EXACT	-0.3010
-3.6989 EXACTLY	-0.3010
-3.6989 EXAM	-0.3010
-3.6989 EXAMINATION	-0.3010
-3.6989 EXAMINE	-0.3010
-3.6989 EXAMPLE	-0.3010
-3.6989 EXCEED	-0.3010
-3.6989 EXCELLENT	-0.3010
-3.3979 EXCEPT	-0.4771
-3.6989 EXCEPTION	-0.3010
-3.6989 EXCESSIVE	-0.3010
-3.3979 EXCHANGE	-0.4771
-3.6989 EXCITED	-0.3010
-3.6989 EXCITEMENT	-0.3010
-3.6989 EXCITING	-0.3010
-3.6989 EXCLUDE	-0.3010
-3.6989 EXCLUSIVE	-0.3010
-3.6989 EXCLUSIVELY	-0.3010
-3.3979 EXCUSE	-0.4771
-3.6989 EXECUTE	-0.3010
-3.6989 EXECUTION	-0.3010
-3.6989 EXECUTIVE	-0.3010
-3.3979 EXERCISE	-0.4771
-3.6989 EXHAUST	-0.3010
-3.3979 EXHIBIT	-0.4771
-3.6989 EXHIBITION	-0.3010
-3.6989 EXIST	-0.3010
-3.6989 EXISTENCE	-0.3010
-3.6989 EXISTING	-0.3010
-3.6989 EXIT	-0.3010
-3.6989 EXOTIC	-0.3010
-3.6989 EXPAND	-0.3010
-3.6989 EXPANSION	-0.3010
-3.6989 EXPECT	-0.3010
-3.6989 EXPECTATION	-0.3010
-3.6989 EXPECTED	-0.3010
-3.6989 EXPEDITION	-0.3010
-3.6989 EXPENSE	-0.3010
-3.6989 EXPENSIVE	-0.3010
-3.3979 EXPERIENCE	-0.4771
-3.6989 EXPERIENCED	-0.3010
-3.6989 EXPERIMENT	-0.3010
-3.6989 EXPERIMENTAL	-0.3010
-3.6989 EXPERT	-0.3010
-3.6989 EXPERTISE	-0.3010
-3.6989 EXPLAIN	-0.3010
-3.6989 EXPLANATION	-0.3010
-3.6989 EXPLICIT	-0.3010
-3.6989 EXPLODE	-0.3010
-3.6989 EXPLOIT	-0.3010
-3.6989 EXPLORATION	-0.3010
-3.6989 EXPLORE	-0.3010
-3.6989 EXPLOSION	-0.3010
-3.6989 EXPORT	-0.3010
-3.6989 EXPOSE	-0.3010
-3.6989 EXPOSURE	-0.3010
-3.6989 EXPRESS	-0.3010
-3.6989 EXPRESSION	-0.3010
-3.6989 EXTEND	-0.3010
-3.6989 EXTENDED	-0.3010
-3.6989 EXTENSION	-0.3010
-3.6989 EXTENSIVE	-0.3010
-3.6989 EXTENT	-0.3010
-3.6989 EXTERNAL	-0.3010
-3.6989 EXTRA	-0.3010
-3.6989 EXTRAORDINARY	-0.3010
-3.6989 EXTREME	-0.3010
-3.6989 EXTREMELY	-0.3010
-3.6989 EYE	-0.3010
-3.6989 EYEBROW	-0.3010
-3.6989 FABRIC	-0.3010
-3.3979 FACE	-0.4771
-3.6989 FACILITATE	-0.3010
-3.6989 FACILITY	-0.3010
-3.6989 FACT	-0.3010
-3.6989 FACTOR	-0.3010
-3.6989 FACTORY	-0.3010
-3.6989 FACULTY	-0.3010
-3.6989 FADE	-0.3010
-3.6989 FAIL	-0.3010
-3.6989 FAILURE	-0.3010
-3.6989 FAINT	-0.3010
-3.6989 FAIR	-0.3010
-3.6989 FAIRLY	-0.3010
-3.6989 FAITH	-0.3010
-3.3979 FALL	-0.4771
-3.6989 FALSE	-0.3010
-3.6989 FAME	-0.3010
-3.6989 FAMILIAR	-0.3010
-3.6989 FAMILY	-0.3010
-3.6989 FAMOUS	-0.3010
-3.6989 FAN	-0.3010
-3.6989 FANTASTIC	-0.3010
-3.6989 FANTASY	-0.3010
-3.2218 FAR	-0.6021
-3.6989 FARE	-0.3010
-3.6989 FARM	-0.3010
-3.6989 FARMER	-0.3010
-3.6989 FASCINATING	-0.3010
-3.6989 FASHION	-0.3010
-3.3979 FAST	-0.4771
-3.6989 FASTER	-0.3010
-3.3979 FAT	-0.4771
-3.6989 FATAL	-0.3010
-3.6989 FATE	-0.3010
-3.6989 FATHER	-0.3010
-3.6989 FATIGUE	-0.3010
-3.6989 FAULT	-0.3010
-3.2218 FAVOR	-0.6021
-3.6989 FAVORABLE	-0.3010
-3.3979 FAVORITE	-0.4771
-3.3979 FEAR	-0.4771
-3.6989 FEATHER	-0.3010
-3.3979 FEATURE	-0.4771
-3.6989 FEDERAL	-0.3010
-3.6989 FEE	-0.3010
-3.6989 FEED	-0.3010
-3.6989 FEEDBACK	-0.3010
-3.3979 FEEL	-0.4771
-3.6989 FEELING	-0.3010
-3.3979 FELLOW	-0.4771
-3.3979 FEMALE	-0.4771
-3.6989 FEMINIST	-0.3010
-3.6989 FENCE	-0.3010
-3.6989 FESTIVAL	-0.3010
-3.6989 FEVER	-0.3010
-3.6989 FEW	-0.3010
-3.6989 FEWER	-0.3010
-3.6989 FIBER	-0.3010
-3.6989 FICTION	-0.3010
-3.6989 FIELD	-0.3010
-3.6989 FIERCE	-0.3010
-3.6989 FIFTEEN	-0.3010
-3.6989 FIFTH	-0.3010
-3.6989 FIFTY	-0.3010
-3.3979 FIGHT	-0.4771
-3.6989 FIGHTER	-0.3010
-3.6989 FIGHTING	-0.3010
-3.3979 FIGURE	-0.4771
-3.3979 FILE	-0.4771
-3.6989 FILL	-0.3010
-3.6989 FILM	-0.3010
-3.6989 FILTER	-0.3010
-3.3979 FINAL	-0.4771
-3.6989 FINALLY	-0.3010
-3.3979 FINANCE	-0.4771
-3.6989 FINANCIAL	-0.3010
-3.6989 FIND	-0.3010
-3.6989 FINDING	-0.3010
-3.6989 FINE	-0.3010
-3.6989 FINGER	-0.3010
-3.3979 FINISH	-0.4771
-3.3979 FIRE	-0.4771
-3.3979 FIRM	-0.4771
-3.6989 FIRMLY	-0.3010
-3.3979 FIRST	-0.4771
-3.6989 FISCAL	-0.3010
-3.3979 FISH	-0.4771
-3.6989 FISHERMAN	-0.3010
-3.6989 FISHING	-0.3010
-3.6989 FIST	-0.3010
-3.3979 FIT	-0.4771
-3.6989 FITNESS	-0.3010
-3.6989 FIVE	-0.3010
-3.6989 FIX	-0.3010
-3.6989 FIXED	-0.3010
-3.6989 FLAG	-0.3010
-3.6989 FLAME	-0.3010
-3.3979 FLASH	-0.4771
-3.6989 FLAT	-0.3010
-3.6989 FLAVOR	-0.3010
-3.6989 FLEE	-0.3010
-3.6989 FLEET	-0.3010
-3.6989 FLESH	-0.3010
-3.6989 FLEXIBILITY	-0.3010
-3.6989 FLEXIBLE	-0.3010
-3.6989 FLIGHT	-0.3010
-3.6989 FLIP	-0.3010
-3.6989 FLOAT	-0.3010
-3.3979 FLOOD	-0.4771
-3.6989 FLOOR	-0.3010
-3.6989 FLOUR	-0.3010
-3.3979 FLOW	-0.4771
-3.6989 FLOWER	-0.3010
-3.6989 FLUID	-0.3010
-3.3979 FLY	-0.4771
-3.6989 FLYING	-0.3010
-3.3979 FOCUS	-0.4771
-3.6989 FOG	-0.3010
-3.6989 FOLD	-0.3010
-3.6989 FOLK	-0.3010
-3.6989 FOLLOW	-0.3010
-3.6989 FOLLOWING	-0.3010
-3.6989 FOOD	-0.3010
-3.6989 FOOL	-0.3010
-3.6989 FOOT	-0.3010
-3.6989 FOOTBALL	-0.3010
-3.3979 FOR	-0.4771
-3.6989 FORBID	-0.3010
-3.3979 FORCE	-0.4771
-3.6989 FOREHEAD	-0.3010
-3.6989 FOREIGN	-0.3010
-3.6989 FOREIGNER	-0.3010
-3.6989 FOREST	-0.3010
-3.6989 FOREVER	-0.3010
-3.6989 FORGET	-0.3010
-3.6989 FORGIVE	-0.3010
-3.6989 FORK	-0.3010
-3.3979 FORM	-0.4771
-3.6989 FORMAL	-0.3010
-3.6989 FORMAT	-0.3010
-3.6989 FORMATION	-0.3010
-3.6989 FORMER	-0.3010
-3.6989 FORMERLY	-0.3010
-3.6989 FORMULA	-0.3010
-3.6989 FORTH	-0.3010
-3.6989 FORTUNATELY	-0.3010
-3.6989 FORTUNE	-0.3010
-3.6989 FORTY	-0.3010
-3.6989 FORUM	-0.3010
-3.6989 FORWARD	-0.3010
-3.6989 FOSTER	-0.3010
-3.6989 FOUND	-0.3010
-3.6989 FOUNDATION	-0.3010
-3.6989 FOUNDER	-0.3010
-3.6989 FOUR	-0.3010
-3.6989 FOURTH	-0.3010
-3.6989 FRACTION	-0.3010
-3.6989 FRAGILE	-0.3010
-3.6989 FRAGMENT	-0.3010
-3.3979 FRAME	-0.4771
-3.6989 FRAMEWORK	-0.3010
-3.6989 FRANCHISE	-0.3010
-3.6989 FRANKLY	-0.3010
-3.6989 FRAUD	-0.3010
-3.3979 FREE	-0.4771
-3.6989 FREEDOM	-0.3010
-3.6989 FREELY	-0.3010
-3.6989 FREEZE	-0.3010
-3.3979 FRENCH	-0.4771
-3.6989 FREQUENCY	-0.3010
-3.6989 FREQUENT	-0.3010
-3.6989 FREQUENTLY	-0.3010
-3.6989 FRESH	-0.3010
-3.6989 FRESHMAN	-0.3010
-3.6989 FRIEND	-0.3010
-3.6989 FRIENDLY	-0.3010
-3.6989 FRIENDSHIP	-0.3010
-3.6989 FROM	-0.3010
-3.2218 FRONT	-0.6021
-3.6989 FRONTIER	-0.3010
-3.6989 FROWN	-0.3010
-3.6989 FROZEN	-0.3010
-3.6989 FRUIT	-0.3010
-3.6989 FRUSTRATE	-0.3010
-3.6989 FRUSTRATION	-0.3010
-3.6989 FUCKING	-0.3010
-3.6989 FUEL	-0.3010
-3.6989 FULL	-0.3010
-3.6989 FULL-TIME	-0.3010
-3.6989 FULLY	-0.3010
-3.3979 FUN	-0.4771
-3.3979 FUNCTION	-0.4771
-3.6989 FUNCTIONAL	-0.3010
-3.3979 FUND	-0.4771
-3.6989 FUNDAMENTAL	-0.3010
-3.6989 FUNDING	-0.3010
-3.6989 FUNERAL	-0.3010
-3.6989 FUNNY	-0.3010
-3.6989 FUR	-0.3010
-3.6989 FURNITURE	-0.3010
-3.6989 FURTHERMORE	-0.3010
-3.3979 FUTURE	-0.4771
-3.3979 GAIN	-0.4771
-3.6989 GALAXY	-0.3010
-3.6989 GALLERY	-0.3010
-3.6989 GAME	-0.3010
-3.6989 GANG	-0.3010
-3.6989 GAP	-0.3010
-3.6989 GARAGE	-0.3010
-3.6989 GARBAGE	-0.3010
-3.6989 GARDEN	-0.3010
-3.6989 GARLIC	-0.3010
-3.6989 GAS	-0.3010
-3.6989 GASOLINE	-0.3010
-3.6989 GATE	-0.3010
-3.6989 GATHER	-0.3010
-3.6989 GATHERING	-0.3010
-3.6989 GAY	-0.3010
-3.3979 GAZE	-0.4771
-3.6989 GEAR	-0.3010
-3.6989 GENDER	-0.3010
-3.6989 GENE	-0.3010
-3.2218 GENERAL	-0.6021
-3.6989 GENERALLY	-0.3010
-3.6989 GENERATE	-0.3010
-3.6989 GENERATION	-0.3010
-3.6989 GENEROUS	-0.3010
-3.6989 GENETIC	-0.3010
-3.6989 GENIUS	-0.3010
-3.6989 GENRE	-0.3010
-3.6989 GENTLE	-0.3010
-3.6989 GENTLEMAN	-0.3010
-3.6989 GENTLY	-0.3010
-3.6989 GENUINE	-0.3010
-3.3979 GERMAN	-0.4771
-3.6989 GESTURE	-0.3010
-3.6989 GET	-0.3010
-3.6989 GHOST	-0.3010
-3.3979 GIANT	-0.4771
-3.6989 GIFT	-0.3010
-3.6989 GIFTED	-0.3010
-3.6989 GIRL	-0.3010
-3.6989 GIRLFRIEND	-0.3010
-3.6989 GIVE	-0.3010
-3.6989 GIVEN	-0.3010
-3.6989 GLAD	-0.3010
-3.3979 GLANCE	-0.4771
-3.6989 GLASS	-0.3010
-3.6989 GLIMPSE	-0.3010
-3.6989 GLOBAL	-0.3010
-3.6989 GLOBE	-0.3010
-3.6989 GLORY	-0.3010
-3.6989 GLOVE	-0.3010
-3.6989 GO	-0.3010
-3.6989 GOAL	-0.3010
-3.6989 GOAT	-0.3010
-3.6989 GOD	-0.3010
-3.6989 GOLD	-0.3010
-3.6989 GOLDEN	-0.3010
-3.6989 GOLF	-0.3010
-3.3979 GOOD	-0.4771
-3.6989 GOVERN	-0.3010
-3.6989 GOVERNMENT	-0.3010
-3.6989 GOVERNOR	-0.3010
-3.6989 GRAB	-0.3010
-3.6989 GRACE	-0.3010
-3.6989 GRADE	-0.3010
-3.6989 GRADUALLY	-0.3010
-3.3979 GRADUATE	-0.4771
-3.6989 GRADUATION	-0.3010
-3.6989 GRAIN	-0.3010
-3.6989 GRAND	-0.3010
-3.6989 GRANDCHILD	-0.3010
-3.6989 GRANDFATHER	-0.3010
-3.6989 GRANDMOTHER	-0.3010
-3.6989 GRANDPARENT	-0.3010
-3.3979 GRANT	-0.4771
-3.6989 GRAPE	-0.3010
-3.6989 GRASP	-0.3010
-3.6989 GRASS	-0.3010
-3.6989 GRATEFUL	-0.3010
-3.6989 GRAVE	-0.3010
-3.6989 GRAVITY	-0.3010
-3.6989 GRAY	-0.3010
-3.6989 GREAT	-0.3010
-3.6989 GREATEST	-0.3010
-3.6989 GREATLY	-0.3010
-3.6989 GREEK	-0.3010
-3.3979 GREEN	-0.4771
-3.6989 GREET	-0.3010
-3.6989 GRIEF	-0.3010
-3.3979 GRIN	-0.4771
-3.6989 GRIP	-0.3010
-3.6989 GROCERY	-0.3010
-3.6989 GROSS	-0.3010
-3.6989 GROUND	-0.3010
-3.6989 GROUP	-0.3010
-3.6989 GROW	-0.3010
-3.6989 GROWING	-0.3010
-3.6989 GROWTH	-0.3010
-3.3979 GUARANTEE	-0.4771
-3.3979 GUARD	-0.4771
-3.6989 GUESS	-0.3010
-3.6989 GUEST	-0.3010
-3.6989 GUIDANCE	-0.3010
-3.3979 GUIDE	-0.4771
-3.6989 GUIDELINE	-0.3010
-3.6989 GUILT	-0.3010
-3.6989 GUILTY	-0.3010
-3.6989 GUITAR	-0.3010
-3.6989 GUN	-0.3010
-3.6989 GUT	-0.3010
-3.6989 GUY	-0.3010
-3.6989 GYM	-0.3010
-3.6989 HA	-0.3010
-3.6989 HABIT	-0.3010
-3.6989 HABITAT	-0.3010
-3.6989 HAIR	-0.3010
-3.3979 HALF	-0.4771
-3.6989 HALFWAY	-0.3010
-3.6989 HALL	-0.3010
-3.6989 HALLWAY	-0.3010
-3.3979 HAND	-0.4771
-3.6989 HANDFUL	-0.3010
-3.3979 HANDLE	-0.4771
-3.6989 HANDSOME	-0.3010
-3.6989 HANG	-0.3010
-3.6989 HAPPEN	-0.3010
-3.6989 HAPPILY	-0.3010
-3.6989 HAPPINESS	-0.3010
-3.6989 HAPPY	-0.3010
-3.6989 HARASSMENT	-0.3010
-3.3979 HARD	-0.4771
-3.6989 HARDLY	-0.3010
-3.6989 HARDWARE	-0.3010
-3.3979 HARM	-0.4771
-3.6989 HARMONY	-0.3010
-3.6989 HARSH	-0.3010
-3.3979 HARVEST	-0.4771
-3.6989 HAT	-0.3010
-3.6989 HATE	-0.3010
-3.6989 HAUL	-0.3010
-3.6989 HAVE	-0.3010
-3.6989 HAY	-0.3010
-3.6989 HAZARD	-0.3010
-3.6989 HE	-0.3010
-3.3979 HEAD	-0.4771
-3.6989 HEADACHE	-0.3010
-3.6989 HEADLINE	-0.3010
-3.6989 HEADQUARTERS	-0.3010
-3.6989 HEAL	-0.3010
-3.6989 HEALTH	-0.3010
-3.0968 HEALTH-CARE	-0.6990
-3.6989 HEALTHY	-0.3010
-3.6989 HEAR	-0.3010
-3.6989 HEARING	-0.3010
-3.6989 HEART	-0.3010
-3.3979 HEAT	-0.4771
-3.6989 HEAVEN	-0.3010
-3.6989 HEAVILY	-0.3010
-3.6989 HEAVY	-0.3010
-3.6989 HEEL	-0.3010
-3.6989 HEIGHT	-0.3010
-3.6989 HELICOPTER	-0.3010
-3.6989 HELL	-0.3010
-3.6989 HELLO	-0.3010
-3.6989 HELMET	-0.3010
-3.3979 HELP	-0.4771
-3.6989 HELPFUL	-0.3010
-3.6989 HENCE	-0.3010
-3.3979 HER	-0.4771
-3.6989 HERB	-0.3010
-3.6989 HERE	-0.3010
-3.6989 HERITAGE	-0.3010
-3.6989 HERO	-0.3010
-3.6989 HERS	-0.3010
-3.6989 HERSELF	-0.3010
-3.6989 HESITATE	-0.3010
-3.6989 HEY	-0.3010
-3.6989 HI	-0.3010
-3.6989 HIDDEN	-0.3010
-3.6989 HIDE	-0.3010
-3.3979 HIGH	-0.4771
-3.6989 HIGH-TECH	-0.3010
-3.6989 HIGHLIGHT	-0.3010
-3.6989 HIGHLY	-0.3010
-3.6989 HIGHWAY	-0.3010
-3.6989 HIKE	-0.3010
-3.6989 HILL	-0.3010
-3.6989 HIM	-0.3010
-3.6989 HIMSELF	-0.3010
-3.6989 HINT	-0.3010
-3.6989 HIP	-0.3010
-3.6989 HIRE	-0.3010
-3.3979 HIS	-0.4771
-3.6989 HISPANIC	-0.3010
-3.6989 HISTORIAN	-0.3010
-3.6989 HISTORIC	-0.3010
-3.6989 HISTORICAL	-0.3010
-3.6989 HISTORICALLY	-0.3010
-3.6989 HISTORY	-0.3010
-3.3979 HIT	-0.4771
-3.6989 HOCKEY	-0.3010
-3.3979 HOLD	-0.4771
-3.6989 HOLE	-0.3010
-3.6989 HOLIDAY	-0.3010
-3.6989 HOLY	-0.3010
-3.3979 HOME	-0.4771
-3.6989 HOMELAND	-0.3010
-3.6989 HOMELESS	-0.3010
-3.6989 HOMEWORK	-0.3010
-3.6989 HONEST	-0.3010
-3.6989 HONESTLY	-0.3010
-3.6989 HONEY	-0.3010
-3.3979 HONOR	-0.4771
-3.3979 HOOK	-0.4771
-3.3979 HOPE	-0.4771
-3.6989 HOPEFULLY	-0.3010
-3.6989 HORIZON	-0.3010
-3.6989 HORMONE	-0.3010
-3.6989 HORN	-0.3010
-3.6989 HORRIBLE	-0.3010
-3.6989 HORROR	-0.3010
-3.6989 HORSE	-0.3010
-3.6989 HOSPITAL	-0.3010
-3.3979 HOST	-0.4771
-3.6989 HOSTAGE	-0.3010
-3.6989 HOSTILE	-0.3010
-3.6989 HOT	-0.3010
-3.6989 HOTEL	-0.3010
-3.6989 HOUR	-0.3010
-3.3979 HOUSE	-0.4771
-3.6989 HOUSEHOLD	-0.3010
-3.6989 HOUSING	-0.3010
-3.6989 HOW	-0.3010
-3.6989 HOWEVER	-0.3010
-3.6989 HUG	-0.3010
-3.6989 HUGE	-0.3010
-3.6989 HUH	-0.3010
-3.3979 HUMAN	-0.4771
-3.6989 HUMANITY	-0.3010
-3.6989 HUMOR	-0.3010
-3.6989 HUNDRED	-0.3010
-3.6989 HUNGER	-0.3010
-3.6989 HUNGRY	-0.3010
-3.6989 HUNT	-0.3010
-3.6989 HUNTER	-0.3010
-3.6989 HUNTING	-0.3010
-3.6989 HURRICANE	-0.3010
-3.6989 HURRY	-0.3010
-3.6989 HURT	-0.3010
-3.6989 HUSBAND	-0.3010
-3.6989 HYPOTHESIS	-0.3010
-3.6989 I	-0.3010
-3.6989 ICE	-0.3010
-3.6989 ICON	-0.3010
-3.6989 IDEA	-0.3010
-3.3979 IDEAL	-0.4771
-3.6989 IDENTICAL	-0.3010
-3.6989 IDENTIFICATION	-0.3010
-3.6989 IDENTIFY	-0.3010
-3.6989 IDENTITY	-0.3010
-3.6989 IDEOLOGICAL	-0.3010
-3.6989 IDEOLOGY	-0.3010
-3.6989 IE	-0.3010
-3.6989 IF	-0.3010
-3.6989 IGNORE	-0.3010
-3.6989 ILL	-0.3010
-3.6989 ILLEGAL	-0.3010
-3.6989 ILLNESS	-0.3010
-3.6989 ILLUSION	-0.3010
-3.6989 ILLUSTRATE	-0.3010
-3.6989 IMAGE	-0.3010
-3.6989 IMAGINATION	-0.3010
-3.6989 IMAGINE	-0.3010
-3.6989 IMMEDIATE	-0.3010
-3.6989 IMMEDIATELY	-0.3010
-3.6989 IMMIGRANT	-0.3010
-3.6989 IMMIGRATION	-0.3010
-3.6989 IMMUNE	-0.3010
-3.6989 IMPACT	-0.3010
-3.6989 IMPLEMENT	-0.3010
-3.6989 IMPLEMENTATION	-0.3010
-3.6989 IMPLICATION	-0.3010
-3.6989 IMPLY	-0.3010
-3.6989 IMPORT	-0.3010
-3.6989 IMPORTANCE	-0.3010
-3.6989 IMPORTANT	-0.3010
-3.6989 IMPORTANTLY	-0.3010
-3.6989 IMPOSE	-0.3010
-3.6989 IMPOSSIBLE	-0.3010
-3.6989 IMPRESS	-0.3010
-3.6989 IMPRESSION	-0.3010
-3.6989 IMPRESSIVE	-0.3010
-3.6989 IMPROVE	-0.3010
-3.6989 IMPROVED	-0.3010
-3.6989 IMPROVEMENT	-0.3010
-3.6989 IMPULSE	-0.3010
-3.2218 IN	-0.6021
-3.6989 INCENTIVE	-0.3010
-3.6989 INCIDENT	-0.3010
-3.6989 INCLUDE	-0.3010
-3.6989 INCLUDING	-0.3010
-3.6989 INCOME	-0.3010
-3.6989 INCORPORATE	-0.3010
-3.3979 INCREASE	-0.4771
-3.6989 INCREASED	-0.3010
-3.6989 INCREASING	-0.3010
-3.6989 INCREASINGLY	-0.3010
-3.6989 INCREDIBLE	-0.3010
-3.6989 INCREDIBLY	-0.3010
-3.6989 INDEED	-0.3010
-3.6989 INDEPENDENCE	-0.3010
-3.6989 INDEPENDENT	-0.3010
-3.6989 INDEX	-0.3010
-3.3979 INDIAN	-0.4771
-3.6989 INDICATE	-0.3010
-3.6989 INDICATION	-0.3010
-3.6989 INDICATOR	-0.3010
-3.6989 INDIGENOUS	-0.3010
-3.3979 INDIVIDUAL	-0.4771
-3.6989 INDUSTRIAL	-0.3010
-3.6989 INDUSTRY	-0.3010
-3.6989 INEVITABLE	-0.3010
-3.6989 INEVITABLY	-0.3010
-3.6989 INFANT	-0.3010
-3.6989 INFECTION	-0.3010
-3.6989 INFLATION	-0.3010
-3.3979 INFLUENCE	-0.4771
-3.6989 INFLUENTIAL	-0.3010
-3.6989 INFORM	-0.3010
-3.6989 INFORMAL	-0.3010
-3.6989 INFORMATION	-0.3010
-3.6989 INFRASTRUCTURE	-0.3010
-3.6989 INGREDIENT	-0.3010
-3.6989 INHERENT	-0.3010
-3.6989 INHERIT	-0.3010
-3.6989 INITIAL	-0.3010
-3.6989 INITIALLY	-0.3010
-3.6989 INITIATE	-0.3010
-3.6989 INITIATIVE	-0.3010
-3.6989 INJURE	-0.3010
-3.6989 INJURY	-0.3010
-3.6989 INMATE	-0.3010
-3.6989 INNER	-0.3010
-3.6989 INNOCENT	-0.3010
-3.6989 INNOVATION	-0.3010
-3.6989 INNOVATIVE	-0.3010
-3.6989 INPUT	-0.3010
-3.6989 INQUIRY	-0.3010
-3.6989 INSECT	-0.3010
-3.6989 INSERT	-0.3010
-3.2218 INSIDE	-0.6021
-3.6989 INSIGHT	-0.3010
-3.6989 INSIST	-0.3010
-3.6989 INSPECTION	-0.3010
-3.6989 INSPECTOR	-0.3010
-3.6989 INSPIRATION	-0.3010
-3.6989 INSPIRE	-0.3010
-3.6989 INSTALL	-0.3010
-3.6989 INSTALLATION	-0.3010
-3.6989 INSTANCE	-0.3010
-3.3979 INSTANT	-0.4771
-3.6989 INSTANTLY	-0.3010
-3.3979 INSTEAD	-0.4771
-3.6989 INSTINCT	-0.3010
-3.6989 INSTITUTION	-0.3010
-3.6989 INSTITUTIONAL	-0.3010
-3.6989 INSTRUCT	-0.3010
-3.6989 INSTRUCTION	-0.3010
-3.6989 INSTRUCTIONAL	-0.3010
-3.6989 INSTRUCTOR	-0.3010
-3.6989 INSTRUMENT	-0.3010
-3.6989 INSURANCE	-0.3010
-3.6989 INTACT	-0.3010
-3.6989 INTEGRATE	-0.3010
-3.6989 INTEGRATED	-0.3010
-3.6989 INTEGRATION	-0.3010
-3.6989 INTEGRITY	-0.3010
-3.3979 INTELLECTUAL	-0.4771
-3.6989 INTELLIGENCE	-0.3010
-3.6989 INTELLIGENT	-0.3010
-3.6989 INTEND	-0.3010
-3.6989 INTENSE	-0.3010
-3.6989 INTENSITY	-0.3010
-3.6989 INTENT	-0.3010
-3.6989 INTENTION	-0.3010
-3.6989 INTERACT	-0.3010
-3.6989 INTERACTION	-0.3010
-3.6989 INTEREST	-0.3010
-3.6989 INTERESTED	-0.3010
-3.6989 INTERESTING	-0.3010
-3.6989 INTERFERE	-0.3010
-3.3979 INTERIOR	-0.4771
-3.6989 INTERNAL	-0.3010
-3.6989 INTERNATIONAL	-0.3010
-3.6989 INTERNET	-0.3010
-3.6989 INTERPRET	-0.3010
-3.6989 INTERPRETATION	-0.3010
-3.6989 INTERRUPT	-0.3010
-3.6989 INTERVAL	-0.3010
-3.6989 INTERVENTION	-0.3010
-3.3979 INTERVIEW	-0.4771
-3.6989 INTIMATE	-0.3010
-3.6989 INTO	-0.3010
-3.6989 INTRODUCE	-0.3010
-3.6989 INTRODUCTION	-0.3010
-3.6989 INVADE	-0.3010
-3.6989 INVASION	-0.3010
-3.6989 INVENT	-0.3010
-3.6989 INVENTION	-0.3010
-3.6989 INVENTORY	-0.3010
-3.6989 INVEST	-0.3010
-3.6989 INVESTIGATE	-0.3010
-3.6989 INVESTIGATION	-0.3010
-3.6989 INVESTIGATOR	-0.3010
-3.6989 INVESTMENT	-0.3010
-3.6989 INVESTOR	-0.3010
-3.6989 INVISIBLE	-0.3010
-3.6989 INVITATION	-0.3010
-3.6989 INVITE	-0.3010
-3.6989 INVOLVE	-0.3010
-3.6989 INVOLVED	-0.3010
-3.6989 INVOLVEMENT	-0.3010
-3.6989 IRAQI	-0.3010
-3.6989 IRISH	-0.3010
-3.6989 IRON	-0.3010
-3.6989 IRONICALLY	-0.3010
-3.6989 IRONY	-0.3010
-3.6989 ISLAM	-0.3010
-3.6989 ISLAMIC	-0.3010
-3.6989 ISLAND	-0.3010
-3.6989 ISOLATE	-0.3010
-3.6989 ISOLATED	-0.3010
-3.6989 ISOLATION	-0.3010
-3.3979 ISRAELI	-0.4771
-3.3979 ISSUE	-0.4771
-3.6989 IT	-0.3010
-3.6989 ITALIAN	-0.3010
-3.6989 ITEM	-0.3010
-3.6989 ITS	-0.3010
-3.6989 ITSELF	-0.3010
-3.6989 JACKET	-0.3010
-3.6989 JAIL	-0.3010
-3.3979 JAPANESE	-0.4771
-3.6989 JAR	-0.3010
-3.6989 JAW	-0.3010
-3.6989 JAZZ	-0.3010
-3.6989 JEANS	-0.3010
-3.6989 JET	-0.3010
-3.6989 JEW	-0.3010
-3.6989 JEWELRY	-0.3010
-3.6989 JEWISH	-0.3010
-3.6989 JOB	-0.3010
-3.6989 JOIN	-0.3010
-3.6989 JOINT	-0.3010
-3.3979 JOKE	-0.4771
-3.6989 JOURNAL	-0.3010
-3.6989 JOURNALISM	-0.3010
-3.6989 JOURNALIST	-0.3010
-3.6989 JOURNEY	-0.3010
-3.6989 JOY	-0.3010
-3.3979 JUDGE	-0.4771
-3.6989 JUDGMENT	-0.3010
-3.6989 JUDICIAL	-0.3010
-3.6989 JUICE	-0.3010
-3.3979 JUMP	-0.4771
-3.6989 JUNGLE	-0.3010
-3.6989 JUNIOR	-0.3010
-3.6989 JURISDICTION	-0.3010
-3.6989 JUROR	-0.3010
-3.6989 JURY	-0.3010
-3.3979 JUST	-0.4771
-3.6989 JUSTICE	-0.3010
-3.6989 JUSTIFY	-0.3010
-3.6989 KEEP	-0.3010
-3.3979 KEY	-0.4771
-3.6989 KICK	-0.3010
-3.6989 KID	-0.3010
-3.6989 KILL	-0.3010
-3.6989 KILLER	-0.3010
-3.6989 KILLING	-0.3010
-3.3979 KIND	-0.4771
-3.6989 KING	-0.3010
-3.6989 KINGDOM	-0.3010
-3.3979 KISS	-0.4771
-3.6989 KIT	-0.3010
-3.6989 KITCHEN	-0.3010
-3.6989 KNEE	-0.3010
-3.6989 KNEEL	-0.3010
-3.6989 KNIFE	-0.3010
-3.6989 KNOCK	-0.3010
-3.6989 KNOW	-0.3010
-3.6989 KNOWLEDGE	-0.3010
-3.6989 KNOWN	-0.3010
-3.6989 KOREAN	-0.3010
-3.6989 LAB	-0.3010
-3.3979 LABEL	-0.4771
-3.6989 LABOR	-0.3010
-3.6989 LABORATORY	-0.3010
-3.3979 LACK	-0.4771
-3.6989 LADDER	-0.3010
-3.6989 LADY	-0.3010
-3.6989 LAKE	-0.3010
-3.6989 LAMP	-0.3010
-3.3979 LAND	-0.4771
-3.6989 LANDING	-0.3010
-3.6989 LANDMARK	-0.3010
-3.6989 LANDSCAPE	-0.3010
-3.6989 LANE	-0.3010
-3.6989 LANGUAGE	-0.3010
-3.6989 LAP	-0.3010
-3.6989 LARGE	-0.3010
-3.6989 LARGELY	-0.3010
-3.6989 LASER	-0.3010
-3.2218 LAST	-0.6021
-3.3979 LATE	-0.4771
-3.6989 LATELY	-0.3010
-3.3979 LATER	-0.4771
-3.6989 LATIN	-0.3010
-3.6989 LATTER	-0.3010
-3.3979 LAUGH	-0.4771
-3.6989 LAUGHTER	-0.3010
-3.3979 LAUNCH	-0.4771
-3.6989 LAW	-0.3010
-3.6989 LAWMAKER	-0.3010
-3.6989 LAWN	-0.3010
-3.6989 LAWSUIT	-0.3010
-3.6989 LAWYER	-0.3010
-3.6989 LAY	-0.3010
-3.6989 LAYER	-0.3010
-3.3979 LEAD	-0.4771
-3.6989 LEADER	-0.3010
-3.6989 LEADERSHIP	-0.3010
-3.6989 LEADING	-0.3010
-3.6989 LEAF	-0.3010
-3.6989 LEAGUE	-0.3010
-3.6989 LEAN	-0.3010
-3.6989 LEAP	-0.3010
-3.6989 LEARN	-0.3010
-3.6989 LEARNING	-0.3010
-3.6989 LEAST	-0.3010
-3.6989 LEATHER	-0.3010
-3.3979 LEAVE	-0.4771
-3.6989 LECTURE	-0.3010
-3.6989 LEFT	-0.3010
-3.6989 LEG	-0.3010
-3.6989 LEGACY	-0.3010
-3.6989 LEGAL	-0.3010
-3.6989 LEGALLY	-0.3010
-3.6989 LEGEND	-0.3010
-3.6989 LEGISLATION	-0.3010
-3.6989 LEGISLATIVE	-0.3010
-3.6989 LEGISLATOR	-0.3010
-3.6989 LEGISLATURE	-0.3010
-3.6989 LEGITIMATE	-0.3010
-3.6989 LEMON	-0.3010
-3.6989 LEND	-0.3010
-3.6989 LENGTH	-0.3010
-3.6989 LENS	-0.3010
-3.3979 LESS	-0.4771
-3.6989 LESSON	-0.3010
-3.6989 LET	-0.3010
-3.6989 LETTER	-0.3010
-3.3979 LEVEL	-0.4771
-3.6989 LIABILITY	-0.3010
-3.3979 LIBERAL	-0.4771
-3.6989 LIBERTY	-0.3010
-3.6989 LIBRARY	-0.3010
-3.6989 LICENSE	-0.3010
-3.6989 LID	-0.3010
-3.3979 LIE	-0.4771
-3.6989 LIFE	-0.3010
-3.6989 LIFESTYLE	-0.3010
-3.6989 LIFETIME	-0.3010
-3.6989 LIFT	-0.3010
-3.0968 LIGHT	-0.6990
-3.6989 LIGHTING	-0.3010
-3.6989 LIGHTLY	-0.3010
-3.6989 LIGHTNING	-0.3010
-2.9999 LIKE	-0.7782
-3.6989 LIKELIHOOD	-0.3010
-3.3979 LIKELY	-0.4771
-3.6989 LIKEWISE	-0.3010
-3.6989 LIMB	-0.3010
-3.3979 LIMIT	-0.4771
-3.6989 LIMITATION	-0.3010
-3.6989 LIMITED	-0.3010
-3.3979 LINE	-0.4771
-3.3979 LINK	-0.4771
-3.6989 LION	-0.3010
-3.6989 LIP	-0.3010
-3.3979 LIQUID	-0.4771
-3.3979 LIST	-0.4771
-3.6989 LISTEN	-0.3010
-3.6989 LISTENER	-0.3010
-3.6989 LITERALLY	-0.3010
-3.6989 LITERARY	-0.3010
-3.6989 LITERATURE	-0.3010
-3.2218 LITTLE	-0.6021
-3.3979 LIVE	-0.4771
-3.6989 LIVER	-0.3010
-3.3979 LIVING	-0.4771
-3.3979 LOAD	-0.4771
-3.6989 LOAN	-0.3010
-3.6989 LOBBY	-0.3010
-3.6989 LOCAL	-0.3010
-3.6989 LOCATE	-0.3010
-3.6989 LOCATION	-0.3010
-3.3979 LOCK	-0.4771
-3.6989 LOG	-0.3010
-3.6989 LOGIC	-0.3010
-3.6989 LOGICAL	-0.3010
-3.6989 LONELY	-0.3010
-3.2218 LONG	-0.6021
-3.6989 LONG-TERM	-0.3010
-3.6989 LONGTIME	-0.3010
-3.3979 LOOK	-0.4771
-3.6989 LOOP	-0.3010
-3.6989 LOOSE	-0.3010
-3.6989 LOSE	-0.3010
-3.6989 LOSS	-0.3010
-3.6989 LOST	-0.3010
-2.9999 LOT	-0.7782
-3.6989 LOTS	-0.3010
-3.3979 LOUD	-0.4771
-3.3979 LOVE	-0.4771
-3.6989 LOVELY	-0.3010
-3.6989 LOVER	-0.3010
-3.3979 LOW	-0.4771
-3.6989 LOWER	-0.3010
-3.6989 LOYAL	-0.3010
-3.6989 LOYALTY	-0.3010
-3.6989 LUCK	-0.3010
-3.6989 LUCKY	-0.3010
-3.6989 LUNCH	-0.3010
-3.6989 LUNG	-0.3010
-3.6989 MACHINE	-0.3010
-3.6989 MAD	-0.3010
-3.6989 MAGAZINE	-0.3010
-3.3979 MAGIC	-0.4771
-3.6989 MAGNETIC	-0.3010
-3.6989 MAGNITUDE	-0.3010
-3.6989 MAIL	-0.3010
-3.6989 MAIN	-0.3010
-3.6989 MAINLY	-0.3010
-3.6989 MAINSTREAM	-0.3010
-3.6989 MAINTAIN	-0.3010
-3.6989 MAINTENANCE	-0.3010
-3.3979 MAJOR	-0.4771
-3.6989 MAJORITY	-0.3010
-3.6989 MAKE	-0.3010
-3.6989 MAKER	-0.3010
-3.6989 MAKEUP	-0.3010
-3.3979 MALE	-0.4771
-3.6989 MALL	-0.3010
-3.6989 MAN	-0.3010
-3.6989 MANAGE	-0.3010
-3.6989 MANAGEMENT	-0.3010
-3.6989 MANAGER	-0.3010
-3.6989 MANAGING	-0.3010
-3.6989 MANDATE	-0.3010
-3.6989 MANIPULATE	-0.3010
-3.6989 MANNER	-0.3010
-3.6989 MANSION	-0.3010
-3.6989 MANUFACTURER	-0.3010
-3.6989 MANUFACTURING	-0.3010
-3.6989 MANY	-0.3010
-3.6989 MAP	-0.3010
-3.6989 MARBLE	-0.3010
-3.6989 MARCH	-0.3010
-3.6989 MARGIN	-0.3010
-3.6989 MARINE	-0.3010
-3.3979 MARK	-0.4771
-3.6989 MARKER	-0.3010
-3.3979 MARKET	-0.4771
-3.6989 MARKETING	-0.3010
-3.6989 MARKETPLACE	-0.3010
-3.6989 MARRIAGE	-0.3010
-3.6989 MARRIED	-0.3010
-3.6989 MARRY	-0.3010
-3.6989 MASK	-0.3010
-3.3979 MASS	-0.4771
-3.6989 MASSIVE	-0.3010
-3.6989 MASTER	-0.3010
-3.3979 MATCH	-0.4771
-3.6989 MATE	-0.3010
-3.6989 MATERIAL	-0.3010
-3.6989 MATH	-0.3010
-3.6989 MATHEMATICS	-0.3010
-3.2218 MATTER	-0.6021
-3.6989 MAXIMUM	-0.3010
-3.6989 MAY	-0.3010
-3.6989 MAYBE	-0.3010
-3.6989 MAYOR	-0.3010
-3.6989 ME	-0.3010
-3.6989 MEAL	-0.3010
-3.2218 MEAN	-0.6021
-3.6989 MEANING	-0.3010
-3.6989 MEANINGFUL	-0.3010
-3.6989 MEANTIME	-0.3010
-3.6989 MEANWHILE	-0.3010
-3.3979 MEASURE	-0.4771
-3.6989 MEASUREMENT	-0.3010
-3.6989 MEAT	-0.3010
-3.6989 MECHANIC	-0.3010
-3.6989 MECHANICAL	-0.3010
-3.6989 MECHANISM	-0.3010
-3.6989 MEDAL	-0.3010
-3.6989 MEDIA	-0.3010
-3.6989 MEDICAL	-0.3010
-3.6989 MEDICATION	-0.3010
-3.6989 MEDICINE	-0.3010
-3.3979 MEDIUM	-0.4771
-3.6989 MEET	-0.3010
-3.6989 MEETING	-0.3010
-3.6989 MELT	-0.3010
-3.6989 MEMBER	-0.3010
-3.6989 MEMBERSHIP	-0.3010
-3.6989 MEMORY	-0.3010
-3.6989 MENTAL	-0.3010
-3.6989 MENTALLY	-0.3010
-3.3979 MENTION	-0.4771
-3.6989 MENTOR	-0.3010
-3.6989 MENU	-0.3010
-3.6989 MERCHANT	-0.3010
-3.6989 MERE	-0.3010
-3.6989 MERELY	-0.3010
-3.6989 MERIT	-0.3010
-3.6989 MESS	-0.3010
-3.6989 MESSAGE	-0.3010
-3.6989 METAL	-0.3010
-3.6989 METAPHOR	-0.3010
-3.6989 METER	-0.3010
-3.6989 METHOD	-0.3010
-3.6989 METROPOLITAN	-0.3010
-3.6989 MEXICAN	-0.3010
-3.3979 MIDDLE	-0.4771
-3.6989 MIDNIGHT	-0.3010
-3.6989 MIDST	-0.3010
-3.6989 MIGHT	-0.3010
-3.6989 MIGRATION	-0.3010
-3.6989 MILD	-0.3010
-3.3979 MILITARY	-0.4771
-3.6989 MILK	-0.3010
-3.6989 MILL	-0.3010
-3.6989 MILLION	-0.3010
-3.3979 MIND	-0.4771
-3.3979 MINE	-0.4771
-3.6989 MINERAL	-0.3010
-3.6989 MINIMAL	-0.3010
-3.6989 MINIMIZE	-0.3010
-3.3979 MINIMUM	-0.4771
-3.6989 MINISTER	-0.3010
-3.6989 MINISTRY	-0.3010
-3.6989 MINOR	-0.3010
-3.6989 MINORITY	-0.3010
-3.6989 MINUTE	-0.3010
-3.6989 MIRACLE	-0.3010
-3.6989 MIRROR	-0.3010
-3.6989 MISS	-0.3010
-3.6989 MISSILE	-0.3010
-3.6989 MISSING	-0.3010
-3.6989 MISSION	-0.3010
-3.6989 MISSIONARY	-0.3010
-3.6989 MISTAKE	-0.3010
-3.3979 MIX	-0.4771
-3.6989 MIXED	-0.3010
-3.6989 MIXTURE	-0.3010
-3.6989 MM-HMM	-0.3010
-3.6989 MOBILE	-0.3010
-3.6989 MODE	-0.3010
-3.3979 MODEL	-0.4771
-3.6989 MODERATE	-0.3010
-3.6989 MODERN	-0.3010
-3.6989 MODEST	-0.3010
-3.6989 MODIFY	-0.3010
-3.6989 MOLECULE	-0.3010
-3.6989 MOM	-0.3010
-3.6989 MOMENT	-0.3010
-3.6989 MOMENTUM	-0.3010
-3.6989 MONEY	-0.3010
-3.3979 MONITOR	-0.4771
-3.6989 MONKEY	-0.3010
-3.6989 MONSTER	-0.3010
-3.6989 MONTH	-0.3010
-3.6989 MONTHLY	-0.3010
-3.6989 MONUMENT	-0.3010
-3.6989 MOOD	-0.3010
-3.6989 MOON	-0.3010
-3.6989 MORAL	-0.3010
-3.3979 MORE	-0.4771
-3.6989 MOREOVER	-0.3010
-3.6989 MORNING	-0.3010
-3.6989 MORTALITY	-0.3010
-3.6989 MORTGAGE	-0.3010
-3.3979 MOST	-0.4771
-3.6989 MOSTLY	-0.3010
-3.6989 MOTHER	-0.3010
-3.6989 MOTION	-0.3010
-3.6989 MOTIVATE	-0.3010
-3.6989 MOTIVATION	-0.3010
-3.6989 MOTIVE	-0.3010
-3.6989 MOTOR	-0.3010
-3.6989 MOUNT	-0.3010
-3.6989 MOUNTAIN	-0.3010
-3.6989 MOUSE	-0.3010
-3.6989 MOUTH	-0.3010
-3.3979 MOVE	-0.4771
-3.6989 MOVEMENT	-0.3010
-3.6989 MOVIE	-0.3010
-3.6989 MR	-0.3010
-3.6989 MRS	-0.3010
-3.6989 MS	-0.3010
-3.3979 MUCH	-0.4771
-3.6989 MUD	-0.3010
-3.6989 MULTIPLE	-0.3010
-3.6989 MUNICIPAL	-0.3010
-3.3979 MURDER	-0.4771
-3.6989 MUSCLE	-0.3010
-3.6989 MUSEUM	-0.3010
-3.6989 MUSHROOM	-0.3010
-3.6989 MUSIC	-0.3010
-3.6989 MUSICAL	-0.3010
-3.6989 MUSICIAN	-0.3010
-3.3979 MUSLIM	-0.4771
-3.6989 MUST	-0.3010
-3.6989 MUTTER	-0.3010
-3.6989 MUTUAL	-0.3010
-3.6989 MY	-0.3010
-3.6989 MYSELF	-0.3010
-3.6989 MYSTERIOUS	-0.3010
-3.6989 MYSTERY	-0.3010
-3.6989 MYTH	-0.3010
-3.6989 NAIL	-0.3010
-3.6989 NAKED	-0.3010
-3.3979 NAME	-0.4771
-3.6989 NARRATIVE	-0.3010
-3.6989 NARROW	-0.3010
-3.6989 NASTY	-0.3010
-3.6989 NATION	-0.3010
-3.6989 NATIONAL	-0.3010
-3.6989 NATIONWIDE	-0.3010
-3.6989 NATIVE	-0.3010
-3.6989 NATURAL	-0.3010
-3.6989 NATURALLY	-0.3010
-3.6989 NATURE	-0.3010
-3.2218 NEAR	-0.6021
-3.3979 NEARBY	-0.4771
-3.6989 NEARLY	-0.3010
-3.6989 NEAT	-0.3010
-3.6989 NECESSARILY	-0.3010
-3.6989 NECESSARY	-0.3010
-3.6989 NECESSITY	-0.3010
-3.6989 NECK	-0.3010
-3.3979 NEED	-0.4771
-3.6989 NEEDLE	-0.3010
-3.6989 NEGATIVE	-0.3010
-3.6989 NEGOTIATE	-0.3010
-3.6989 NEGOTIATION	-0.3010
-3.6989 NEIGHBOR	-0.3010
-3.6989 NEIGHBORHOOD	-0.3010
-3.6989 NEIGHBORING	-0.3010
-3.3979 NEITHER	-0.4771
-3.6989 NERVE	-0.3010
-3.6989 NERVOUS	-0.3010
-3.6989 NEST	-0.3010
-3.3979 NET	-0.4771
-3.6989 NETWORK	-0.3010
-3.6989 NEUTRAL	-0.3010
-3.6989 NEVER	-0.3010
-3.6989 NEVERTHELESS	-0.3010
-3.6989 NEW	-0.3010
-3.6989 NEWLY	-0.3010
-3.6989 NEWS	-0.3010
-3.6989 NEWSPAPER	-0.3010
-3.3979 NEXT	-0.4771
-3.6989 NICE	-0.3010
-3.6989 NIGHT	-0.3010
-3.6989 NIGHTMARE	-0.3010
-3.6989 NINE	-0.3010
-2.9999 NO	-0.7782
-3.6989 NOBODY	-0.3010
-3.6989 NOD	-0.3010
-3.6989 NOISE	-0.3010
-3.6989 NOMINATION	-0.3010
-3.6989 NOMINEE	-0.3010
-3.6989 NONE	-0.3010
-3.6989 NONETHELESS	-0.3010
-3.6989 NONPROFIT	-0.3010
-3.6989 NOON	-0.3010
-3.6989 NOR	-0.3010
-3.6989 NORM	-0.3010
-3.6989 NORMAL	-0.3010
-3.6989 NORMALLY	-0.3010
-3.6989 NORTH	-0.3010
-3.6989 NORTHEAST	-0.3010
-3.6989 NORTHERN	-0.3010
-3.6989 NORTHWEST	-0.3010
-3.6989 NOSE	-0.3010
-3.3979 NOT	-0.4771
-3.3979 NOTE	-0.4771
-3.6989 NOTEBOOK	-0.3010
-3.6989 NOTHING	-0.3010
-3.3979 NOTICE	-0.4771
-3.6989 NOTION	-0.3010
-3.6989 NOVEL	-0.3010
-3.3979 NOW	-0.4771
-3.6989 NOWHERE	-0.3010
-3.6989 NUCLEAR	-0.3010
-3.6989 NUMBER	-0.3010
-3.6989 NUMEROUS	-0.3010
-3.6989 NURSE	-0.3010
-3.6989 NUT	-0.3010
-3.6989 NUTRIENT	-0.3010
-2.9999 O'CLOCK	-0.7782
-3.6989 OAK	-0.3010
-3.3979 OBJECT	-0.4771
-3.6989 OBJECTION	-0.3010
-3.6989 OBJECTIVE	-0.3010
-3.6989 OBLIGATION	-0.3010
-3.6989 OBSERVATION	-0.3010
-3.6989 OBSERVE	-0.3010
-3.6989 OBSERVER	-0.3010
-3.6989 OBSTACLE	-0.3010
-3.6989 OBTAIN	-0.3010
-3.6989 OBVIOUS	-0.3010
-3.6989 OBVIOUSLY	-0.3010
-3.6989 OCCASION	-0.3010
-3.6989 OCCASIONAL	-0.3010
-3.6989 OCCASIONALLY	-0.3010
-3.6989 OCCUPATION	-0.3010
-3.6989 OCCUPY	-0.3010
-3.6989 OCCUR	-0.3010
-3.6989 OCEAN	-0.3010
-3.6989 ODD	-0.3010
-3.6989 ODDS	-0.3010
-3.6989 OF	-0.3010
-3.3979 OFF	-0.4771
-3.6989 OFFENDER	-0.3010
-3.6989 OFFENSE	-0.3010
-3.6989 OFFENSIVE	-0.3010
-3.3979 OFFER	-0.4771
-3.6989 OFFERING	-0.3010
-3.6989 OFFICE	-0.3010
-3.6989 OFFICER	-0.3010
-3.3979 OFFICIAL	-0.4771
-3.6989 OFFICIALLY	-0.3010
-3.6989 OFTEN	-0.3010
-3.6989 OH	-0.3010
-3.6989 OIL	-0.3010
-3.3979 OK	-0.4771
-3.3979 OKAY	-0.4771
-3.6989 OLD	-0.3010
-3.6989 OLD-FASHIONED	-0.3010
-3.6989 OLYMPIC	-0.3010
-3.6989 OLYMPICS	-0.3010
-3.3979 ON	-0.4771
-3.3979 ONCE	-0.4771
-3.2218 ONE	-0.6021
-3.6989 ONE-THIRD	-0.3010
-3.6989 ONGOING	-0.3010
-3.6989 ONION	-0.3010
-3.3979 ONLINE	-0.4771
-3.3979 ONLY	-0.4771
-3.6989 ONTO	-0.3010
-3.3979 OPEN	-0.4771
-3.6989 OPENING	-0.3010
-3.6989 OPENLY	-0.3010
-3.6989 OPERA	-0.3010
-3.6989 OPERATE	-0.3010
-3.6989 OPERATING	-0.3010
-3.6989 OPERATION	-0.3010
-3.6989 OPERATOR	-0.3010
-3.6989 OPINION	-0.3010
-3.6989 OPPONENT	-0.3010
-3.6989 OPPORTUNITY	-0.3010
-3.6989 OPPOSE	-0.3010
-3.6989 OPPOSED	-0.3010
-3.6989 OPPOSITE	-0.3010
-3.6989 OPPOSITION	-0.3010
-3.6989 OPT	-0.3010
-3.6989 OPTIMISTIC	-0.3010
-3.6989 OPTION	-0.3010
-3.6989 OR	-0.3010
-3.6989 ORAL	-0.3010
-3.3979 ORANGE	-0.4771
-3.6989 ORBIT	-0.3010
-3.3979 ORDER	-0.4771
-3.6989 ORDINARY	-0.3010
-3.6989 ORGAN	-0.3010
-3.6989 ORGANIC	-0.3010
-3.6989 ORGANISM	-0.3010
-3.6989 ORGANIZATION	-0.3010
-3.6989 ORGANIZATIONAL	-0.3010
-3.6989 ORGANIZE	-0.3010
-3.6989 ORGANIZED	-0.3010
-3.6989 ORIENTATION	-0.3010
-3.6989 ORIGIN	-0.3010
-3.6989 ORIGINAL	-0.3010
-3.6989 ORIGINALLY	-0.3010
-3.2218 OTHER	-0.6021
-3.6989 OTHERS	-0.3010
-3.6989 OTHERWISE	-0.3010
-3.6989 OUGHT	-0.3010
-3.6989 OUR	-0.3010
-3.6989 OURS	-0.3010
-3.6989 OURSELVES	-0.3010
-3.3979 OUT	-0.4771
-3.6989 OUTCOME	-0.3010
-3.6989 OUTDOOR	-0.3010
-3.6989 OUTER	-0.3010
-3.6989 OUTFIT	-0.3010
-3.6989 OUTLET	-0.3010
-3.6989 OUTLINE	-0.3010
-3.6989 OUTPUT	-0.3010
-3.2218 OUTSIDE	-0.6021
-3.6989 OUTSIDER	-0.3010
-3.6989 OUTSTANDING	-0.3010
-3.6989 OVEN	-0.3010
-3.3979 OVER	-0.4771
-3.3979 OVERALL	-0.4771
-3.6989 OVERCOME	-0.3010
-3.6989 OVERLOOK	-0.3010
-3.6989 OVERNIGHT	-0.3010
-3.6989 OVERSEE	-0.3010
-3.6989 OVERWHELM	-0.3010
-3.6989 OVERWHELMING	-0.3010
-3.6989 OWE	-0.3010
-3.3979 OWN	-0.4771
-3.6989 OWNER	-0.3010
-3.6989 OWNERSHIP	-0.3010
-3.6989 OXYGEN	-0.3010
-3.6989 PACE	-0.3010
-3.3979 PACK	-0.4771
-3.6989 PACKAGE	-0.3010
-3.6989 PAD	-0.3010
-3.6989 PAGE	-0.3010
-3.6989 PAIN	-0.3010
-3.6989 PAINFUL	-0.3010
-3.3979 PAINT	-0.4771
-3.6989 PAINTER	-0.3010
-3.6989 PAINTING	-0.3010
-3.6989 PAIR	-0.3010
-3.6989 PALACE	-0.3010
-3.6989 PALE	-0.3010
-3.3979 PALESTINIAN	-0.4771
-3.6989 PALM	-0.3010
-3.6989 PAN	-0.3010
-3.6989 PANEL	-0.3010
-3.6989 PANIC	-0.3010
-3.6989 PANT	-0.3010
-3.6989 PAPER	-0.3010
-3.6989 PARADE	-0.3010
-3.6989 PARENT	-0.3010
-3.6989 PARENTAL	-0.3010
-3.6989 PARISH	-0.3010
-3.3979 PARK	-0.4771
-3.6989 PARKING	-0.3010
-3.2218 PART	-0.6021
-3.6989 PARTIAL	-0.3010
-3.6989 PARTIALLY	-0.3010
-3.6989 PARTICIPANT	-0.3010
-3.6989 PARTICIPATE	-0.3010
-3.6989 PARTICIPATION	-0.3010
-3.6989 PARTICLE	-0.3010
-3.3979 PARTICULAR	-0.4771
-3.6989 PARTICULARLY	-0.3010
-3.6989 PARTLY	-0.3010
-3.6989 PARTNER	-0.3010
-3.6989 PARTNERSHIP	-0.3010
-3.6989 PARTY	-0.3010
-3.3979 PASS	-0.4771
-3.6989 PASSAGE	-0.3010
-3.6989 PASSENGER	-0.3010
-3.6989 PASSING	-0.3010
-3.6989 PASSION	-0.3010
-3.0968 PAST	-0.6990
-3.6989 PASTA	-0.3010
-3.6989 PASTOR	-0.3010
-3.6989 PAT	-0.3010
-3.6989 PATCH	-0.3010
-3.6989 PATENT	-0.3010
-3.6989 PATH	-0.3010
-3.6989 PATIENCE	-0.3010
-3.3979 PATIENT	-0.4771
-3.6989 PATROL	-0.3010
-3.6989 PATRON	-0.3010
-3.6989 PATTERN	-0.3010
-3.3979 PAUSE	-0.4771
-3.3979 PAY	-0.4771
-3.6989 PAYMENT	-0.3010
-3.6989 PC	-0.3010
-3.6989 PEACE	-0.3010
-3.6989 PEACEFUL	-0.3010
-3.6989 PEAK	-0.3010
-3.6989 PEANUT	-0.3010
-3.6989 PEASANT	-0.3010
-3.6989 PEEL	-0.3010
-3.3979 PEER	-0.4771
-3.6989 PEN	-0.3010
-3.6989 PENALTY	-0.3010
-3.6989 PENCIL	-0.3010
-3.6989 PENSION	-0.3010
-3.6989 PEOPLE	-0.3010
-3.6989 PEPPER	-0.3010
-3.6989 PER	-0.3010
-3.6989 PERCEIVE	-0.3010
-3.6989 PERCEIVED	-0.3010
-3.6989 PERCENTAGE	-0.3010
-3.6989 PERCEPTION	-0.3010
-3.6989 PERFECT	-0.3010
-3.6989 PERFECTLY	-0.3010
-3.6989 PERFORM	-0.3010
-3.6989 PERFORMANCE	-0.3010
-3.6989 PERFORMER	-0.3010
-3.6989 PERHAPS	-0.3010
-3.6989 PERIOD	-0.3010
-3.6989 PERMANENT	-0.3010
-3.6989 PERMISSION	-0.3010
-3.3979 PERMIT	-0.4771
-3.6989 PERSIAN	-0.3010
-3.6989 PERSIST	-0.3010
-3.6989 PERSON	-0.3010
-3.6989 PERSONAL	-0.3010
-3.6989 PERSONALITY	-0.3010
-3.6989 PERSONALLY	-0.3010
-3.6989 PERSONNEL	-0.3010
-3.6989 PERSPECTIVE	-0.3010
-3.6989 PERSUADE	-0.3010
-3.6989 PET	-0.3010
-3.6989 PHASE	-0.3010
-3.6989 PHENOMENON	-0.3010
-3.6989 PHILOSOPHICAL	-0.3010
-3.6989 PHILOSOPHY	-0.3010
-3.6989 PHONE	-0.3010
-3.6989 PHOTO	-0.3010
-3.3979 PHOTOGRAPH	-0.4771
-3.6989 PHOTOGRAPHER	-0.3010
-3.6989 PHOTOGRAPHY	-0.3010
-3.6989 PHRASE	-0.3010
-3.6989 PHYSICAL	-0.3010
-3.6989 PHYSICALLY	-0.3010
-3.6989 PHYSICIAN	-0.3010
-3.6989 PHYSICS	-0.3010
-3.6989 PIANO	-0.3010
-3.6989 PICK	-0.3010
-3.6989 PICKUP	-0.3010
-3.3979 PICTURE	-0.4771
-3.6989 PIE	-0.3010
-3.6989 PIECE	-0.3010
-3.6989 PIG	-0.3010
-3.3979 PILE	-0.4771
-3.6989 PILL	-0.3010
-3.6989 PILLOW	-0.3010
-3.6989 PILOT	-0.3010
-3.6989 PIN	-0.3010
-3.6989 PINE	-0.3010
-3.6989 PINK	-0.3010
-3.6989 PIONEER	-0.3010
-3.6989 PIPE	-0.3010
-3.6989 PIT	-0.3010
-3.3979 PITCH	-0.4771
-3.6989 PITCHER	-0.3010
-3.6989 PIZZA	-0.3010
-3.3979 PLACE	-0.4771
-3.6989 PLACEMENT	-0.3010
-3.3979 PLAIN	-0.4771
-3.3979 PLAN	-0.4771
-3.6989 PLANE	-0.3010
-3.6989 PLANET	-0.3010
-3.6989 PLANNER	-0.3010
-3.6989 PLANNING	-0.3010
-3.3979 PLANT	-0.4771
-3.6989 PLASTIC	-0.3010
-3.6989 PLATE	-0.3010
-3.6989 PLATFORM	-0.3010
-3.3979 PLAY	-0.4771
-3.6989 PLAYER	-0.3010
-3.6989 PLAYOFF	-0.3010
-3.6989 PLEA	-0.3010
-3.6989 PLEAD	-0.3010
-3.6989 PLEASANT	-0.3010
-3.3979 PLEASE	-0.4771
-3.6989 PLEASED	-0.3010
-3.6989 PLEASURE	-0.3010
-3.6989 PLENTY	-0.3010
-3.6989 PLOT	-0.3010
-3.6989 PLUNGE	-0.3010
-3.6989 PLUS	-0.3010
-3.6989 PM	-0.3010
-3.6989 POCKET	-0.3010
-3.6989 POEM	-0.3010
-3.6989 POET	-0.3010
-3.6989 POETRY	-0.3010
-3.3979 POINT	-0.4771
-3.6989 POKE	-0.3010
-3.6989 POLE	-0.3010
-3.6989 POLICE	-0.3010
-3.6989 POLICEMAN	-0.3010
-3.6989 POLICY	-0.3010
-3.6989 POLITICAL	-0.3010
-3.6989 POLITICALLY	-0.3010
-3.6989 POLITICIAN	-0.3010
-3.6989 POLITICS	-0.3010
-3.6989 POLL	-0.3010
-3.6989 POLLUTION	-0.3010
-3.6989 POND	-0.3010
-3.6989 POOL	-0.3010
-3.6989 POOR	-0.3010
-3.3979 POP	-0.4771
-3.6989 POPULAR	-0.3010
-3.6989 POPULARITY	-0.3010
-3.6989 POPULATION	-0.3010
-3.6989 PORCH	-0.3010
-3.6989 PORK	-0.3010
-3.6989 PORT	-0.3010
-3.6989 PORTFOLIO	-0.3010
-3.6989 PORTION	-0.3010
-3.6989 PORTRAIT	-0.3010
-3.6989 PORTRAY	-0.3010
-3.6989 POSE	-0.3010
-3.3979 POSITION	-0.4771
-3.6989 POSITIVE	-0.3010
-3.6989 POSSESS	-0.3010
-3.6989 POSSESSION	-0.3010
-3.6989 POSSIBILITY	-0.3010
-3.6989 POSSIBLE	-0.3010
-3.6989 POSSIBLY	-0.3010
-3.3979 POST	-0.4771
-3.6989 POSTER	-0.3010
-3.6989 POT	-0.3010
-3.6989 POTATO	-0.3010
-3.3979 POTENTIAL	-0.4771
-3.6989 POTENTIALLY	-0.3010
-3.3979 POUND	-0.4771
-3.6989 POUR	-0.3010
-3.6989 POVERTY	-0.3010
-3.6989 POWDER	-0.3010
-3.6989 POWER	-0.3010
-3.6989 POWERFUL	-0.3010
-3.6989 PRACTICAL	-0.3010
-3.6989 PRACTICALLY	-0.3010
-3.3979 PRACTICE	-0.4771
-3.6989 PRACTITIONER	-0.3010
-3.3979 PRAISE	-0.4771
-3.6989 PRAY	-0.3010
-3.6989 PRAYER	-0.3010
-3.6989 PREACH	-0.3010
-3.6989 PRECIOUS	-0.3010
-3.6989 PRECISE	-0.3010
-3.6989 PRECISELY	-0.3010
-3.6989 PREDATOR	-0.3010
-3.6989 PREDICT	-0.3010
-3.6989 PREDICTION	-0.3010
-3.6989 PREFER	-0.3010
-3.6989 PREFERENCE	-0.3010
-3.6989 PREGNANCY	-0.3010
-3.6989 PREGNANT	-0.3010
-3.6989 PRELIMINARY	-0.3010
-3.6989 PREMISE	-0.3010
-3.6989 PREMIUM	-0.3010
-3.6989 PREPARATION	-0.3010
-3.6989 PREPARE	-0.3010
-3.6989 PRESCRIPTION	-0.3010
-3.6989 PRESENCE	-0.3010
-3.2218 PRESENT	-0.6021
-3.6989 PRESENTATION	-0.3010
-3.6989 PRESERVE	-0.3010
-3.6989 PRESIDENCY	-0.3010
-3.6989 PRESIDENT	-0.3010
-3.6989 PRESIDENTIAL	-0.3010
-3.3979 PRESS	-0.4771
-3.6989 PRESSURE	-0.3010
-3.6989 PRESUMABLY	-0.3010
-3.6989 PRETEND	-0.3010
-3.3979 PRETTY	-0.4771
-3.6989 PREVAIL	-0.3010
-3.6989 PREVENT	-0.3010
-3.6989 PREVENTION	-0.3010
-3.6989 PREVIOUS	-0.3010
-3.6989 PREVIOUSLY	-0.3010
-3.6989 PRICE	-0.3010
-3.6989 PRIDE	-0.3010
-3.6989 PRIEST	-0.3010
-3.6989 PRIMARILY	-0.3010
-3.3979 PRIMARY	-0.4771
-3.6989 PRIME	-0.3010
-3.3979 PRINCIPAL	-0.4771
-3.6989 PRINCIPLE	-0.3010
-3.3979 PRINT	-0.4771
-3.3979 PRIOR	-0.4771
-3.6989 PRIORITY	-0.3010
-3.6989 PRISON	-0.3010
-3.6989 PRISONER	-0.3010
-3.6989 PRIVACY	-0.3010
-3.6989 PRIVATE	-0.3010
-3.6989 PRIVATELY	-0.3010
-3.6989 PRIVILEGE	-0.3010
-3.6989 PRIZE	-0.3010
-3.3979 PRO	-0.4771
-3.6989 PROBABLY	-0.3010
-3.6989 PROBLEM	-0.3010
-3.6989 PROCEDURE	-0.3010
-3.6989 PROCEED	-0.3010
-3.3979 PROCESS	-0.4771
-3.6989 PROCESSING	-0.3010
-3.6989 PROCESSOR	-0.3010
-3.6989 PROCLAIM	-0.3010
-3.6989 PRODUCE	-0.3010
-3.6989 PRODUCER	-0.3010
-3.6989 PRODUCT	-0.3010
-3.6989 PRODUCTION	-0.3010
-3.6989 PRODUCTIVE	-0.3010
-3.6989 PRODUCTIVITY	-0.3010
-3.6989 PROFESSION	-0.3010
-3.3979 PROFESSIONAL	-0.4771
-3.6989 PROFESSOR	-0.3010
-3.6989 PROFILE	-0.3010
-3.6989 PROFIT	-0.3010
-3.6989 PROFOUND	-0.3010
-3.3979 PROGRAM	-0.4771
-3.6989 PROGRAMMING	-0.3010
-3.6989 PROGRESS	-0.3010
-3.6989 PROGRESSIVE	-0.3010
-3.6989 PROHIBIT	-0.3010
-3.3979 PROJECT	-0.4771
-3.6989 PROJECTION	-0.3010
-3.6989 PROMINENT	-0.3010
-3.3979 PROMISE	-0.4771
-3.6989 PROMISING	-0.3010
-3.6989 PROMOTE	-0.3010
-3.6989 PROMOTION	-0.3010
-3.6989 PROMPT	-0.3010
-3.6989 PROOF	-0.3010
-3.6989 PROPER	-0.3010
-3.6989 PROPERLY	-0.3010
-3.6989 PROPERTY	-0.3010
-3.6989 PROPORTION	-0.3010
-3.6989 PROPOSAL	-0.3010
-3.6989 PROPOSE	-0.3010
-3.6989 PROPOSED	-0.3010
-3.6989 PROSECUTION	-0.3010
-3.6989 PROSECUTOR	-0.3010
-3.6989 PROSPECT	-0.3010
-3.6989 PROTECT	-0.3010
-3.6989 PROTECTION	-0.3010
-3.6989 PROTECTIVE	-0.3010
-3.6989 PROTEIN	-0.3010
-3.3979 PROTEST	-0.4771
-3.6989 PROTOCOL	-0.3010
-3.6989 PROUD	-0.3010
-3.6989 PROVE	-0.3010
-3.6989 PROVIDE	-0.3010
-3.6989 PROVIDED	-0.3010
-3.6989 PROVIDER	-0.3010
-3.6989 PROVINCE	-0.3010
-3.6989 PROVISION	-0.3010
-3.6989 PROVOKE	-0.3010
-3.6989 PSYCHOLOGICAL	-0.3010
-3.6989 PSYCHOLOGIST	-0.3010
-3.6989 PSYCHOLOGY	-0.3010
-3.2218 PUBLIC	-0.6021
-3.6989 PUBLICATION	-0.3010
-3.6989 PUBLICITY	-0.3010
-3.6989 PUBLICLY	-0.3010
-3.6989 PUBLISH	-0.3010
-3.6989 PUBLISHER	-0.3010
-3.6989 PULL	-0.3010
-3.6989 PULSE	-0.3010
-3.3979 PUMP	-0.4771
-3.6989 PUNCH	-0.3010
-3.6989 PUNISH	-0.3010
-3.6989 PUNISHMENT	-0.3010
-3.3979 PURCHASE	-0.4771
-3.6989 PURE	-0.3010
-3.6989 PURPLE	-0.3010
-3.6989 PURPOSE	-0.3010
-3.6989 PURSE	-0.3010
-3.6989 PURSUE	-0.3010
-3.6989 PURSUIT	-0.3010
-3.6989 PUSH	-0.3010
-3.6989 PUT	-0.3010
-3.6989 PUZZLE	-0.3010
-3.6989 QUALIFY	-0.3010
-3.6989 QUALITY	-0.3010
-3.6989 QUANTITY	-0.3010
-3.6989 QUARTER	-0.3010
-3.6989 QUARTERBACK	-0.3010
-3.6989 QUEEN	-0.3010
-3.6989 QUEST	-0.3010
-3.3979 QUESTION	-0.4771
-3.6989 QUESTIONNAIRE	-0.3010
-3.6989 QUICK	-0.3010
-3.6989 QUICKLY	-0.3010
-3.6989 QUIET	-0.3010
-3.6989 QUIETLY	-0.3010
-3.6989 QUIT	-0.3010
-3.6989 QUITE	-0.3010
-3.3979 QUOTE	-0.4771
-3.6989 RABBIT	-0.3010
-3.3979 RACE	-0.4771
-3.6989 RACIAL	-0.3010
-3.6989 RACISM	-0.3010
-3.6989 RACK	-0.3010
-3.6989 RADAR	-0.3010
-3.6989 RADIATION	-0.3010
-3.6989 RADICAL	-0.3010
-3.6989 RADIO	-0.3010
-3.6989 RAGE	-0.3010
-3.6989 RAIL	-0.3010
-3.6989 RAILROAD	-0.3010
-3.3979 RAIN	-0.4771
-3.6989 RAISE	-0.3010
-3.6989 RALLY	-0.3010
-3.6989 RANCH	-0.3010
-3.6989 RANDOM	-0.3010
-3.3979 RANGE	-0.4771
-3.3979 RANK	-0.4771
-3.6989 RAPE	-0.3010
-3.6989 RAPID	-0.3010
-3.6989 RAPIDLY	-0.3010
-3.6989 RARE	-0.3010
-3.6989 RARELY	-0.3010
-3.6989 RAT	-0.3010
-3.3979 RATE	-0.4771
-3.2218 RATHER	-0.6021
-3.6989 RATING	-0.3010
-3.6989 RATIO	-0.3010
-3.6989 RATIONAL	-0.3010
-3.6989 RAW	-0.3010
-3.6989 RE	-0.3010
-3.3979 REACH	-0.4771
-3.6989 REACT	-0.3010
-3.6989 REACTION	-0.3010
-3.6989 READ	-0.3010
-3.6989 READER	-0.3010
-3.6989 READILY	-0.3010
-3.6989 READING	-0.3010
-3.6989 READY	-0.3010
-3.6989 REAL	-0.3010
-3.6989 REALISTIC	-0.3010
-3.6989 REALITY	-0.3010
-3.6989 REALIZE	-0.3010
-3.6989 REALLY	-0.3010
-3.6989 REALM	-0.3010
-3.6989 REAR	-0.3010
-3.6989 REASON	-0.3010
-3.6989 REASONABLE	-0.3010
-3.6989 REBEL	-0.3010
-3.6989 REBUILD	-0.3010
-3.6989 RECALL	-0.3010
-3.6989 RECEIVE	-0.3010
-3.6989 RECEIVER	-0.3010
-3.6989 RECENT	-0.3010
-3.6989 RECENTLY	-0.3010
-3.6989 RECEPTION	-0.3010
-3.6989 RECESSION	-0.3010
-3.6989 RECIPE	-0.3010
-3.6989 RECIPIENT	-0.3010
-3.6989 RECOGNITION	-0.3010
-3.6989 RECOGNIZE	-0.3010
-3.6989 RECOMMEND	-0.3010
-3.6989 RECOMMENDATION	-0.3010
-3.3979 RECORD	-0.4771
-3.6989 RECORDING	-0.3010
-3.6989 RECOVER	-0.3010
-3.6989 RECOVERY	-0.3010
-3.6989 RECRUIT	-0.3010
-3.6989 RED	-0.3010
-3.6989 REDUCE	-0.3010
-3.6989 REDUCTION	-0.3010
-3.6989 REFER	-0.3010
-3.6989 REFERENCE	-0.3010
-3.6989 REFLECT	-0.3010
-3.6989 REFLECTION	-0.3010
-3.6989 REFORM	-0.3010
-3.6989 REFRIGERATOR	-0.3010
-3.6989 REFUGE	-0.3010
-3.6989 REFUGEE	-0.3010
-3.6989 REFUSE	-0.3010
-3.6989 REGAIN	-0.3010
-3.2218 REGARD	-0.6021
-3.6989 REGARDING	-0.3010
-3.6989 REGARDLESS	-0.3010
-3.6989 REGIME	-0.3010
-3.6989 REGION	-0.3010
-3.6989 REGIONAL	-0.3010
-3.6989 REGISTER	-0.3010
-3.6989 REGRET	-0.3010
-3.6989 REGULAR	-0.3010
-3.6989 REGULARLY	-0.3010
-3.6989 REGULATE	-0.3010
-3.6989 REGULATION	-0.3010
-3.6989 REGULATOR	-0.3010
-3.6989 REGULATORY	-0.3010
-3.6989 REHABILITATION	-0.3010
-3.6989 REINFORCE	-0.3010
-3.6989 REJECT	-0.3010
-3.6989 RELATE	-0.3010
-3.6989 RELATED	-0.3010
-3.6989 RELATION	-0.3010
-3.6989 RELATIONSHIP	-0.3010
-3.3979 RELATIVE	-0.4771
-3.6989 RELATIVELY	-0.3010
-3.6989 RELAX	-0.3010
-3.3979 RELEASE	-0.4771
-3.6989 RELEVANT	-0.3010
-3.6989 RELIABILITY	-0.3010
-3.6989 RELIABLE	-0.3010
-3.6989 RELIEF	-0.3010
-3.6989 RELIEVE	-0.3010
-3.6989 RELIGION	-0.3010
-3.6989 RELIGIOUS	-0.3010
-3.6989 RELUCTANT	-0.3010
-3.6989 RELY	-0.3010
-3.6989 REMAIN	-0.3010
-3.6989 REMAINING	-0.3010
-3.3979 REMARK	-0.4771
-3.6989 REMARKABLE	-0.3010
-3.6989 REMEMBER	-0.3010
-3.6989 REMIND	-0.3010
-3.6989 REMINDER	-0.3010
-3.6989 REMOTE	-0.3010
-3.6989 REMOVAL	-0.3010
-3.6989 REMOVE	-0.3010
-3.6989 RENDER	-0.3010
-3.3979 RENT	-0.4771
-3.6989 RENTAL	-0.3010
-3.3979 REPAIR	-0.4771
-3.6989 REPEAT	-0.3010
-3.6989 REPEATEDLY	-0.3010
-3.6989 REPLACE	-0.3010
-3.6989 REPLACEMENT	-0.3010
-3.6989 REPLY	-0.3010
-3.3979 REPORT	-0.4771
-3.6989 REPORTEDLY	-0.3010
-3.6989 REPORTER	-0.3010
-3.6989 REPORTING	-0.3010
-3.6989 REPRESENT	-0.3010
-3.6989 REPRESENTATION	-0.3010
-3.3979 REPRESENTATIVE	-0.4771
-3.6989 REPUBLIC	-0.3010
-3.3979 REPUBLICAN	-0.4771
-3.6989 REPUTATION	-0.3010
-3.3979 REQUEST	-0.4771
-3.6989 REQUIRE	-0.3010
-3.6989 REQUIRED	-0.3010
-3.6989 REQUIREMENT	-0.3010
-3.3979 RESCUE	-0.4771
-3.3979 RESEARCH	-0.4771
-3.6989 RESEARCHER	-0.3010
-3.6989 RESEMBLE	-0.3010
-3.6989 RESERVATION	-0.3010
-3.3979 RESERVE	-0.4771
-3.6989 RESIDENCE	-0.3010
-3.6989 RESIDENT	-0.3010
-3.6989 RESIDENTIAL	-0.3010
-3.6989 RESIGN	-0.3010
-3.6989 RESIST	-0.3010
-3.6989 RESISTANCE	-0.3010
-3.6989 RESOLUTION	-0.3010
-3.6989 RESOLVE	-0.3010
-3.6989 RESORT	-0.3010
-3.6989 RESOURCE	-0.3010
-3.2218 RESPECT	-0.6021
-3.6989 RESPECTIVELY	-0.3010
-3.6989 RESPOND	-0.3010
-3.6989 RESPONDENT	-0.3010
-3.3979 RESPONSE	-0.4771
-3.6989 RESPONSIBILITY	-0.3010
-3.6989 RESPONSIBLE	-0.3010
-3.3979 REST	-0.4771
-3.6989 RESTAURANT	-0.3010
-3.6989 RESTORE	-0.3010
-3.6989 RESTRICT	-0.3010
-3.6989 RESTRICTION	-0.3010
-3.3979 RESULT	-0.4771
-3.6989 RESUME	-0.3010
-3.6989 RETAIL	-0.3010
-3.6989 RETAILER	-0.3010
-3.6989 RETAIN	-0.3010
-3.6989 RETIRE	-0.3010
-3.6989 RETIRED	-0.3010
-3.6989 RETIREMENT	-0.3010
-3.6989 RETREAT	-0.3010
-3.3979 RETURN	-0.4771
-3.6989 REVEAL	-0.3010
-3.6989 REVELATION	-0.3010
-3.6989 REVENUE	-0.3010
-3.6989 REVERSE	-0.3010
-3.3979 REVIEW	-0.4771
-3.6989 REVOLUTION	-0.3010
-3.6989 REVOLUTIONARY	-0.3010
-3.3979 REWARD	-0.4771
-3.6989 RHETORIC	-0.3010
-3.6989 RHYTHM	-0.3010
-3.6989 RIB	-0.3010
-3.6989 RIBBON	-0.3010
-3.6989 RICE	-0.3010
-3.6989 RICH	-0.3010
-3.6989 RID	-0.3010
-3.3979 RIDE	-0.4771
-3.6989 RIDER	-0.3010
-3.6989 RIDGE	-0.3010
-3.6989 RIDICULOUS	-0.3010
-3.6989 RIFLE	-0.3010
-3.2218 RIGHT	-0.6021
-3.6989 RIM	-0.3010
-3.3979 RING	-0.4771
-3.6989 RIOT	-0.3010
-3.6989 RIP	-0.3010
-3.3979 RISE	-0.4771
-3.3979 RISK	-0.4771
-3.6989 RISKY	-0.3010
-3.6989 RITUAL	-0.3010
-3.6989 RIVAL	-0.3010
-3.6989 RIVER	-0.3010
-3.6989 ROAD	-0.3010
-3.6989 ROBOT	-0.3010
-3.3979 ROCK	-0.4771
-3.6989 ROCKET	-0.3010
-3.6989 ROD	-0.3010
-3.6989 ROLE	-0.3010
-3.3979 ROLL	-0.4771
-3.6989 ROLLING	-0.3010
-3.6989 ROMAN	-0.3010
-3.6989 ROMANCE	-0.3010
-3.6989 ROMANTIC	-0.3010
-3.6989 ROOF	-0.3010
-3.6989 ROOM	-0.3010
-3.3979 ROOT	-0.4771
-3.6989 ROPE	-0.3010
-3.6989 ROSE	-0.3010
-3.6989 ROUGH	-0.3010
-3.6989 ROUGHLY	-0.3010
-3.2218 ROUND	-0.6021
-3.6989 ROUTE	-0.3010
-3.6989 ROUTINE	-0.3010
-3.6989 ROUTINELY	-0.3010
-3.6989 ROW	-0.3010
-3.6989 ROYAL	-0.3010
-3.6989 RUB	-0.3010
-3.6989 RUBBER	-0.3010
-3.6989 RUIN	-0.3010
-3.3979 RULE	-0.4771
-3.6989 RULING	-0.3010
-3.6989 RUMOR	-0.3010
-3.3979 RUN	-0.4771
-3.6989 RUNNER	-0.3010
-3.3979 RUNNING	-0.4771
-3.6989 RURAL	-0.3010
-3.3979 RUSH	-0.4771
-3.3979 RUSSIAN	-0.4771
-3.6989 SACK	-0.3010
-3.6989 SACRED	-0.3010
-3.3979 SACRIFICE	-0.4771
-3.6989 SAD	-0.3010
-3.6989 SAFE	-0.3010
-3.6989 SAFELY	-0.3010
-3.6989 SAFETY	-0.3010
-3.6989 SAIL	-0.3010
-3.6989 SAKE	-0.3010
-3.6989 SALAD	-0.3010
-3.6989 SALARY	-0.3010
-3.6989 SALE	-0.3010
-3.6989 SALES	-0.3010
-3.6989 SALMON	-0.3010
-3.6989 SALT	-0.3010
-3.6989 SAME	-0.3010
-3.6989 SAMPLE	-0.3010
-3.6989 SANCTION	-0.3010
-3.6989 SAND	-0.3010
-3.6989 SANDWICH	-0.3010
-3.6989 SATELLITE	-0.3010
-3.6989 SATISFACTION	-0.3010
-3.6989 SATISFY	-0.3010
-3.6989 SAUCE	-0.3010
-3.6989 SAVE	-0.3010
-3.6989 SAVING	-0.3010
-3.6989 SAY	-0.3010
-3.6989 SCALE	-0.3010
-3.6989 SCAN	-0.3010
-3.6989 SCANDAL	-0.3010
-3.6989 SCARE	-0.3010
-3.6989 SCARED	-0.3010
-3.6989 SCARY	-0.3010
-3.6989 SCATTER	-0.3010
-3.6989 SCENARIO	-0.3010
-3.6989 SCENE	-0.3010
-3.6989 SCENT	-0.3010
-3.3979 SCHEDULE	-0.4771
-3.6989 SCHEME	-0.3010
-3.6989 SCHOLAR	-0.3010
-3.6989 SCHOLARSHIP	-0.3010
-3.6989 SCHOOL	-0.3010
-3.6989 SCIENCE	-0.3010
-3.6989 SCIENTIFIC	-0.3010
-3.6989 SCIENTIST	-0.3010
-3.6989 SCOPE	-0.3010
-3.3979 SCORE	-0.4771
-3.6989 SCRAMBLE	-0.3010
-3.6989 SCRATCH	-0.3010
-3.6989 SCREAM	-0.3010
-3.3979 SCREEN	-0.4771
-3.6989 SCREENING	-0.3010
-3.6989 SCREW	-0.3010
-3.6989 SCRIPT	-0.3010
-3.6989 SCULPTURE	-0.3010
-3.6989 SEA	-0.3010
-3.3979 SEAL	-0.4771
-3.3979 SEARCH	-0.4771
-3.6989 SEASON	-0.3010
-3.3979 SEAT	-0.4771
-3.3979 SECOND	-0.4771
-3.6989 SECONDARY	-0.3010
-3.3979 SECRET	-0.4771
-3.6989 SECRETARY	-0.3010
-3.6989 SECTION	-0.3010
-3.6989 SECTOR	-0.3010
-3.6989 SECULAR	-0.3010
-3.3979 SECURE	-0.4771
-3.6989 SECURITY	-0.3010
-3.6989 SEE	-0.3010
-3.6989 SEED	-0.3010
-3.6989 SEEK	-0.3010
-3.6989 SEEM	-0.3010
-3.6989 SEEMINGLY	-0.3010
-3.6989 SEGMENT	-0.3010
-3.6989 SEIZE	-0.3010
-3.6989 SELDOM	-0.3010
-3.6989 SELECT	-0.3010
-3.6989 SELECTED	-0.3010
-3.6989 SELECTION	-0.3010
-3.6989 SELF	-0.3010
-3.6989 SELF-ESTEEM	-0.3010
-3.6989 SELL	-0.3010
-3.6989 SELLER	-0.3010
-3.6989 SEMINAR	-0.3010
-3.6989 SENATE	-0.3010
-3.6989 SENATOR	-0.3010
-3.6989 SEND	-0.3010
-3.3979 SENIOR	-0.4771
-3.6989 SENSATION	-0.3010
-3.3979 SENSE	-0.4771
-3.6989 SENSITIVE	-0.3010
-3.6989 SENSITIVITY	-0.3010
-3.6989 SENTENCE	-0.3010
-3.6989 SENTIMENT	-0.3010
-3.3979 SEPARATE	-0.4771
-3.6989 SEPARATION	-0.3010
-3.6989 SEQUENCE	-0.3010
-3.6989 SERIES	-0.3010
-3.6989 SERIOUS	-0.3010
-3.6989 SERIOUSLY	-0.3010
-3.6989 SERVANT	-0.3010
-3.6989 SERVE	-0.3010
-3.6989 SERVICE	-0.3010
-3.6989 SERVING	-0.3010
-3.6989 SESSION	-0.3010
-3.3979 SET	-0.4771
-3.6989 SETTING	-0.3010
-3.6989 SETTLE	-0.3010
-3.6989 SETTLEMENT	-0.3010
-3.6989 SEVEN	-0.3010
-3.6989 SEVENTH	-0.3010
-3.6989 SEVERAL	-0.3010
-3.6989 SEVERE	-0.3010
-3.6989 SEVERELY	-0.3010
-3.6989 SEX	-0.3010
-3.6989 SEXUAL	-0.3010
-3.6989 SEXUALITY	-0.3010
-3.6989 SEXUALLY	-0.3010
-3.6989 SEXY	-0.3010
-3.6989 SHADE	-0.3010
-3.6989 SHADOW	-0.3010
-3.6989 SHAKE	-0.3010
-3.6989 SHALL	-0.3010
-3.6989 SHALLOW	-0.3010
-3.6989 SHAME	-0.3010
-3.3979 SHAPE	-0.4771
-3.3979 SHARE	-0.4771
-3.6989 SHARED	-0.3010
-3.6989 SHAREHOLDER	-0.3010
-3.6989 SHARK	-0.3010
-3.6989 SHARP	-0.3010
-3.6989 SHARPLY	-0.3010
-3.6989 SHE	-0.3010
-3.6989 SHED	-0.3010
-3.6989 SHEEP	-0.3010
-3.6989 SHEER	-0.3010
-3.6989 SHEET	-0.3010
-3.6989 SHELF	-0.3010
-3.6989 SHELL	-0.3010
-3.6989 SHELTER	-0.3010
-3.3979 SHIFT	-0.4771
-3.6989 SHINE	-0.3010
-3.3979 SHIP	-0.4771
-3.6989 SHIRT	-0.3010
-3.6989 SHIT	-0.3010
-3.3979 SHOCK	-0.4771
-3.6989 SHOE	-0.3010
-3.6989 SHOOT	-0.3010
-3.6989 SHOOTING	-0.3010
-3.3979 SHOP	-0.4771
-3.6989 SHOPPING	-0.3010
-3.6989 SHORE	-0.3010
-3.3979 SHORT	-0.4771
-3.6989 SHORT-TERM	-0.3010
-3.6989 SHORTAGE	-0.3010
-3.6989 SHORTLY	-0.3010
-3.6989 SHORTS	-0.3010
-3.6989 SHOT	-0.3010
-3.6989 SHOULD	-0.3010
-3.6989 SHOULDER	-0.3010
-3.6989 SHOUT	-0.3010
-3.6989 SHOVE	-0.3010
-3.3979 SHOW	-0.4771
-3.6989 SHOWER	-0.3010
-3.6989 SHRIMP	-0.3010
-3.6989 SHRINK	-0.3010
-3.6989 SHRUG	-0.3010
-3.6989 SHUT	-0.3010
-3.6989 SHUTTLE	-0.3010
-3.6989 SHY	-0.3010
-3.6989 SIBLING	-0.3010
-3.6989 SICK	-0.3010
-3.6989 SIDE	-0.3010
-3.6989 SIDEWALK	-0.3010
-3.6989 SIGH	-0.3010
-3.6989 SIGHT	-0.3010
-3.3979 SIGN	-0.4771
-3.3979 SIGNAL	-0.4771
-3.6989 SIGNATURE	-0.3010
-3.6989 SIGNIFICANCE	-0.3010
-3.6989 SIGNIFICANT	-0.3010
-3.6989 SIGNIFICANTLY	-0.3010
-3.6989 SILENCE	-0.3010
-3.6989 SILENT	-0.3010
-3.6989 SILK	-0.3010
-3.6989 SILLY	-0.3010
-3.6989 SILVER	-0.3010
-3.6989 SIMILAR	-0.3010
-3.6989 SIMILARITY	-0.3010
-3.6989 SIMILARLY	-0.3010
-3.6989 SIMPLE	-0.3010
-3.6989 SIMPLY	-0.3010
-3.6989 SIMULTANEOUSLY	-0.3010
-3.6989 SIN	-0.3010
-3.2218 SINCE	-0.6021
-3.6989 SING	-0.3010
-3.6989 SINGER	-0.3010
-3.6989 SINGLE	-0.3010
-3.3979 SINK	-0.4771
-3.6989 SIR	-0.3010
-3.6989 SISTER	-0.3010
-3.6989 SIT	-0.3010
-3.6989 SITE	-0.3010
-3.6989 SITUATION	-0.3010
-3.6989 SIX	-0.3010
-3.6989 SIXTH	-0.3010
-3.6989 SIZE	-0.3010
-3.6989 SKI	-0.3010
-3.6989 SKILL	-0.3010
-3.6989 SKILLED	-0.3010
-3.6989 SKIN	-0.3010
-3.6989 SKIP	-0.3010
-3.6989 SKIRT	-0.3010
-3.6989 SKULL	-0.3010
-3.6989 SKY	-0.3010
-3.6989 SLAM	-0.3010
-3.6989 SLAP	-0.3010
-3.6989 SLAVE	-0.3010
-3.6989 SLAVERY	-0.3010
-3.3979 SLEEP	-0.4771
-3.6989 SLEEVE	-0.3010
-3.3979 SLICE	-0.4771
-3.3979 SLIDE	-0.4771
-3.6989 SLIGHT	-0.3010
-3.6989 SLIGHTLY	-0.3010
-3.6989 SLIP	-0.3010
-3.6989 SLOPE	-0.3010
-3.6989 SLOT	-0.3010
-3.3979 SLOW	-0.4771
-3.6989 SLOWLY	-0.3010
-3.6989 SMALL	-0.3010
-3.6989 SMART	-0.3010
-3.3979 SMELL	-0.4771
-3.3979 SMILE	-0.4771
-3.3979 SMOKE	-0.4771
-3.6989 SMOOTH	-0.3010
-3.6989 SNAKE	-0.3010
-3.6989 SNAP	-0.3010
-3.6989 SNEAK	-0.3010
-3.6989 SNOW	-0.3010
-3.3979 SO	-0.4771
-3.6989 SO-CALLED	-0.3010
-3.6989 SOAK	-0.3010
-3.6989 SOAP	-0.3010
-3.6989 SOAR	-0.3010
-3.6989 SOCCER	-0.3010
-3.6989 SOCIAL	-0.3010
-3.6989 SOCIALLY	-0.3010
-3.6989 SOCIETY	-0.3010
-3.6989 SOCK	-0.3010
-3.6989 SODIUM	-0.3010
-3.6989 SOFA	-0.3010
-3.6989 SOFT	-0.3010
-3.6989 SOFTEN	-0.3010
-3.6989 SOFTLY	-0.3010
-3.6989 SOFTWARE	-0.3010
-3.6989 SOIL	-0.3010
-3.6989 SOLAR	-0.3010
-3.6989 SOLDIER	-0.3010
-3.6989 SOLE	-0.3010
-3.6989 SOLELY	-0.3010
-3.6989 SOLID	-0.3010
-3.6989 SOLUTION	-0.3010
-3.6989 SOLVE	-0.3010
-3.6989 SOME	-0.3010
-3.6989 SOMEBODY	-0.3010
-3.6989 SOMEDAY	-0.3010
-3.6989 SOMEHOW	-0.3010
-3.6989 SOMEONE	-0.3010
-3.6989 SOMETHING	-0.3010
-3.6989 SOMETIME	-0.3010
-3.6989 SOMETIMES	-0.3010
-3.6989 SOMEWHAT	-0.3010
-3.6989 SOMEWHERE	-0.3010
-3.6989 SON	-0.3010
-3.6989 SONG	-0.3010
-3.3979 SOON	-0.4771
-3.6989 SOPHISTICATED	-0.3010
-3.6989 SORRY	-0.3010
-3.3979 SORT	-0.4771
-3.6989 SOUL	-0.3010
-3.3979 SOUND	-0.4771
-3.6989 SOUP	-0.3010
-3.6989 SOURCE	-0.3010
-3.6989 SOUTH	-0.3010
-3.6989 SOUTHEAST	-0.3010
-3.6989 SOUTHERN	-0.3010
-3.6989 SOUTHWEST	-0.3010
-3.6989 SOVEREIGNTY	-0.3010
-3.6989 SOVIET	-0.3010
-3.6989 SPACE	-0.3010
-3.6989 SPANISH	-0.3010
-3.6989 SPARE	-0.3010
-3.6989 SPARK	-0.3010
-3.6989 SPEAK	-0.3010
-3.6989 SPEAKER	-0.3010
-3.6989 SPECIAL	-0.3010
-3.6989 SPECIALIST	-0.3010
-3.6989 SPECIALIZE	-0.3010
-3.6989 SPECIALTY	-0.3010
-3.6989 SPECIES	-0.3010
-3.6989 SPECIFIC	-0.3010
-3.6989 SPECIFICALLY	-0.3010
-3.6989 SPECIFY	-0.3010
-3.6989 SPECTACULAR	-0.3010
-3.6989 SPECTRUM	-0.3010
-3.6989 SPECULATE	-0.3010
-3.6989 SPECULATION	-0.3010
-3.6989 SPEECH	-0.3010
-3.3979 SPEED	-0.4771
-3.6989 SPELL	-0.3010
-3.6989 SPEND	-0.3010
-3.6989 SPENDING	-0.3010
-3.6989 SPHERE	-0.3010
-3.6989 SPILL	-0.3010
-3.6989 SPIN	-0.3010
-3.6989 SPINE	-0.3010
-3.6989 SPIRIT	-0.3010
-3.6989 SPIRITUAL	-0.3010
-3.6989 SPIT	-0.3010
-3.6989 SPITE	-0.3010
-3.6989 SPLIT	-0.3010
-3.6989 SPOKESMAN	-0.3010
-3.3979 SPONSOR	-0.4771
-3.6989 SPOON	-0.3010
-3.6989 SPORT	-0.3010
-3.3979 SPOT	-0.4771
-3.6989 SPOUSE	-0.3010
-3.6989 SPRAY	-0.3010
-3.3979 SPREAD	-0.4771
-3.3979 SPRING	-0.4771
-3.6989 SPRINKLE	-0.3010
-3.6989 SPY	-0.3010
-3.6989 SQUAD	-0.3010
-3.3979 SQUARE	-0.4771
-3.6989 SQUEEZE	-0.3010
-3.6989 STABILITY	-0.3010
-3.6989 STABLE	-0.3010
-3.6989 STACK	-0.3010
-3.6989 STADIUM	-0.3010
-3.6989 STAFF	-0.3010
-3.6989 STAGE	-0.3010
-3.6989 STAIR	-0.3010
-3.6989 STAKE	-0.3010
-3.6989 STANCE	-0.3010
-3.3979 STAND	-0.4771
-3.3979 STANDARD	-0.4771
-3.6989 STANDING	-0.3010
-3.3979 STAR	-0.4771
-3.6989 STARE	-0.3010
-3.3979 START	-0.4771
-3.6989 STARTER	-0.3010
-3.6989 STARTING	-0.3010
-3.3979 STATE	-0.4771
-3.6989 STATEMENT	-0.3010
-3.6989 STATION	-0.3010
-3.6989 STATISTICAL	-0.3010
-3.6989 STATISTICS	-0.3010
-3.6989 STATUE	-0.3010
-3.6989 STATUS	-0.3010
-3.6989 STATUTE	-0.3010
-3.3979 STAY	-0.4771
-3.6989 STEADILY	-0.3010
-3.6989 STEADY	-0.3010
-3.6989 STEAK	-0.3010
-3.6989 STEAL	-0.3010
-3.6989 STEAM	-0.3010
-3.6989 STEEL	-0.3010
-3.6989 STEEP	-0.3010
-3.6989 STEER	-0.3010
-3.3979 STEM	-0.4771
-3.3979 STEP	-0.4771
-3.3979 STICK	-0.4771
-3.6989 STIFF	-0.3010
-3.3979 STILL	-0.4771
-3.6989 STIMULATE	-0.3010
-3.6989 STIMULUS	-0.3010
-3.6989 STIR	-0.3010
-3.6989 STOCK	-0.3010
-3.6989 STOMACH	-0.3010
-3.6989 STONE	-0.3010
-3.3979 STOP	-0.4771
-3.6989 STORAGE	-0.3010
-3.3979 STORE	-0.4771
-3.6989 STORM	-0.3010
-3.6989 STORY	-0.3010
-3.6989 STOVE	-0.3010
-3.3979 STRAIGHT	-0.4771
-3.6989 STRAIGHTEN	-0.3010
-3.3979 STRAIN	-0.4771
-3.6989 STRANGE	-0.3010
-3.6989 STRANGER	-0.3010
-3.6989 STRATEGIC	-0.3010
-3.6989 STRATEGY	-0.3010
-3.6989 STRAW	-0.3010
-3.6989 STREAK	-0.3010
-3.6989 STREAM	-0.3010
-3.6989 STREET	-0.3010
-3.6989 STRENGTH	-0.3010
-3.6989 STRENGTHEN	-0.3010
-3.3979 STRESS	-0.4771
-3.3979 STRETCH	-0.4771
-3.6989 STRICT	-0.3010
-3.6989 STRICTLY	-0.3010
-3.3979 STRIKE	-0.4771
-3.6989 STRIKING	-0.3010
-3.6989 STRING	-0.3010
-3.3979 STRIP	-0.4771
-3.6989 STROKE	-0.3010
-3.6989 STRONG	-0.3010
-3.6989 STRONGLY	-0.3010
-3.6989 STRUCTURAL	-0.3010
-3.6989 STRUCTURE	-0.3010
-3.3979 STRUGGLE	-0.4771
-3.6989 STUDENT	-0.3010
-3.6989 STUDIO	-0.3010
-3.3979 STUDY	-0.4771
-3.3979 STUFF	-0.4771
-3.6989 STUMBLE	-0.3010
-3.6989 STUPID	-0.3010
-3.6989 STYLE	-0.3010
-3.3979 SUBJECT	-0.4771
-3.6989 SUBMIT	-0.3010
-3.6989 SUBSEQUENT	-0.3010
-3.6989 SUBSIDY	-0.3010
-3.6989 SUBSTANCE	-0.3010
-3.6989 SUBSTANTIAL	-0.3010
-3.6989 SUBSTANTIALLY	-0.3010
-3.6989 SUBTLE	-0.3010
-3.6989 SUBURB	-0.3010
-3.6989 SUBURBAN	-0.3010
-3.6989 SUCCEED	-0.3010
-3.6989 SUCCESS	-0.3010
-3.6989 SUCCESSFUL	-0.3010
-3.6989 SUCCESSFULLY	-0.3010
-3.3979 SUCH	-0.4771
-3.6989 SUCK	-0.3010
-3.3979 SUDDEN	-0.4771
-3.6989 SUDDENLY	-0.3010
-3.6989 SUE	-0.3010
-3.6989 SUFFER	-0.3010
-3.6989 SUFFERING	-0.3010
-3.6989 SUFFICIENT	-0.3010
-3.6989 SUGAR	-0.3010
-3.6989 SUGGEST	-0.3010
-3.6989 SUGGESTION	-0.3010
-3.6989 SUICIDE	-0.3010
-3.3979 SUIT	-0.4771
-3.6989 SUITABLE	-0.3010
-3.6989 SUITE	-0.3010
-3.6989 SUM	-0.3010
-3.6989 SUMMARY	-0.3010
-3.6989 SUMMER	-0.3010
-3.6989 SUMMIT	-0.3010
-3.6989 SUN	-0.3010
-3.6989 SUNLIGHT	-0.3010
-3.6989 SUNNY	-0.3010
-3.6989 SUPER	-0.3010
-3.6989 SUPERIOR	-0.3010
-3.6989 SUPERMARKET	-0.3010
-3.6989 SUPERVISOR	-0.3010
-3.6989 SUPPLIER	-0.3010
-3.3979 SUPPLY	-0.4771
-3.3979 SUPPORT	-0.4771
-3.6989 SUPPORTER	-0.3010
-3.6989 SUPPORTIVE	-0.3010
-3.6989 SUPPOSE	-0.3010
-3.6989 SUPPOSED	-0.3010
-3.6989 SUPPOSEDLY	-0.3010
-3.6989 SUPREME	-0.3010
-3.3979 SURE	-0.4771
-3.6989 SURELY	-0.3010
-3.6989 SURFACE	-0.3010
-3.6989 SURGEON	-0.3010
-3.6989 SURGERY	-0.3010
-3.3979 SURPRISE	-0.4771
-3.6989 SURPRISED	-0.3010
-3.6989 SURPRISING	-0.3010
-3.6989 SURPRISINGLY	-0.3010
-3.6989 SURROUND	-0.3010
-3.6989 SURROUNDING	-0.3010
-3.6989 SURVEILLANCE	-0.3010
-3.3979 SURVEY	-0.4771
-3.6989 SURVIVAL	-0.3010
-3.6989 SURVIVE	-0.3010
-3.6989 SURVIVOR	-0.3010
-3.3979 SUSPECT	-0.4771
-3.6989 SUSPEND	-0.3010
-3.6989 SUSPICION	-0.3010
-3.6989 SUSPICIOUS	-0.3010
-3.6989 SUSTAIN	-0.3010
-3.6989 SUSTAINABLE	-0.3010
-3.6989 SWALLOW	-0.3010
-3.6989 SWEAR	-0.3010
-3.6989 SWEAT	-0.3010
-3.6989 SWEATER	-0.3010
-3.6989 SWEEP	-0.3010
-3.6989 SWEET	-0.3010
-3.6989 SWELL	-0.3010
-3.6989 SWIM	-0.3010
-3.6989 SWIMMING	-0.3010
-3.3979 SWING	-0.4771
-3.3979 SWITCH	-0.4771
-3.6989 SWORD	-0.3010
-3.6989 SYMBOL	-0.3010
-3.6989 SYMBOLIC	-0.3010
-3.6989 SYMPATHY	-0.3010
-3.6989 SYMPTOM	-0.3010
-3.6989 SYNDROME	-0.3010
-3.6989 SYSTEM	-0.3010
-3.6989 T-SHIRT	-0.3010
-3.6989 TABLE	-0.3010
-3.6989 TABLESPOON	-0.3010
-3.6989 TACKLE	-0.3010
-3.6989 TACTIC	-0.3010
-3.6989 TAG	-0.3010
-3.6989 TAIL	-0.3010
-3.6989 TAKE	-0.3010
-3.6989 TALE	-0.3010
-3.6989 TALENT	-0.3010
-3.6989 TALENTED	-0.3010
-3.3979 TALK	-0.4771
-3.6989 TALL	-0.3010
-3.6989 TANK	-0.3010
-3.6989 TAP	-0.3010
-3.6989 TAPE	-0.3010
-3.3979 TARGET	-0.4771
-3.6989 TASK	-0.3010
-3.3979 TASTE	-0.4771
-3.6989 TAX	-0.3010
-3.6989 TAXPAYER	-0.3010
-3.6989 TEA	-0.3010
-3.6989 TEACH	-0.3010
-3.6989 TEACHER	-0.3010
-3.6989 TEACHING	-0.3010
-3.6989 TEAM	-0.3010
-3.6989 TEAMMATE	-0.3010
-3.3979 TEAR	-0.4771
-3.6989 TEASPOON	-0.3010
-3.6989 TECHNICAL	-0.3010
-3.6989 TECHNICIAN	-0.3010
-3.6989 TECHNIQUE	-0.3010
-3.6989 TECHNOLOGICAL	-0.3010
-3.6989 TECHNOLOGY	-0.3010
-3.6989 TEEN	-0.3010
-3.6989 TEENAGE	-0.3010
-3.6989 TEENAGER	-0.3010
-3.6989 TELEPHONE	-0.3010
-3.6989 TELESCOPE	-0.3010
-3.6989 TELEVISION	-0.3010
-3.6989 TELL	-0.3010
-3.6989 TEMPERATURE	-0.3010
-3.6989 TEMPLE	-0.3010
-3.6989 TEMPORARY	-0.3010
-3.6989 TEN	-0.3010
-3.6989 TEND	-0.3010
-3.6989 TENDENCY	-0.3010
-3.6989 TENDER	-0.3010
-3.6989 TENNIS	-0.3010
-3.6989 TENSION	-0.3010
-3.6989 TENT	-0.3010
-3.6989 TERM	-0.3010
-3.6989 TERMS	-0.3010
-3.6989 TERRAIN	-0.3010
-3.6989 TERRIBLE	-0.3010
-3.6989 TERRIBLY	-0.3010
-3.6989 TERRIFIC	-0.3010
-3.6989 TERRITORY	-0.3010
-3.6989 TERROR	-0.3010
-3.6989 TERRORISM	-0.3010
-3.3979 TERRORIST	-0.4771
-3.3979 TEST	-0.4771
-3.6989 TESTIFY	-0.3010
-3.6989 TESTIMONY	-0.3010
-3.6989 TESTING	-0.3010
-3.6989 TEXT	-0.3010
-3.6989 TEXTBOOK	-0.3010
-3.6989 TEXTURE	-0.3010
-3.3979 THAN	-0.4771
-3.6989 THANK	-0.3010
-3.6989 THANKS	-0.3010
-3.6989 THANKSGIVING	-0.3010
-3.2218 THAT	-0.6021
-3.6989 THE	-0.3010
-3.6989 THEATER	-0.3010
-3.6989 THEIR	-0.3010
-3.6989 THEM	-0.3010
-3.6989 THEME	-0.3010
-3.6989 THEMSELVES	-0.3010
-3.6989 THEN	-0.3010
-3.6989 THEOLOGICAL	-0.3010
-3.6989 THEOLOGY	-0.3010
-3.6989 THEORETICAL	-0.3010
-3.6989 THEORY	-0.3010
-3.6989 THERAPIST	-0.3010
-3.6989 THERAPY	-0.3010
-3.3979 THERE	-0.4771
-3.6989 THEREBY	-0.3010
-3.6989 THEREFORE	-0.3010
-3.6989 THESE	-0.3010
-3.6989 THEY	-0.3010
-3.6989 THICK	-0.3010
-3.6989 THIGH	-0.3010
-3.6989 THIN	-0.3010
-3.6989 THING	-0.3010
-3.6989 THINK	-0.3010
-3.6989 THINKING	-0.3010
-3.6989 THIRD	-0.3010
-3.6989 THIRTY	-0.3010
-3.3979 THIS	-0.4771
-3.6989 THOROUGHLY	-0.3010
-3.6989 THOSE	-0.3010
-3.3979 THOUGH	-0.4771
-3.6989 THOUGHT	-0.3010
-3.6989 THOUSAND	-0.3010
-3.6989 THREAD	-0.3010
-3.6989 THREAT	-0.3010
-3.6989 THREATEN	-0.3010
-3.6989 THREE	-0.3010
-3.6989 THRESHOLD	-0.3010
-3.6989 THRIVE	-0.3010
-3.6989 THROAT	-0.3010
-3.3979 THROUGH	-0.4771
-3.6989 THROUGHOUT	-0.3010
-3.6989 THROW	-0.3010
-3.6989 THUMB	-0.3010
-3.6989 THUS	-0.3010
-3.6989 TICKET	-0.3010
-3.6989 TIDE	-0.3010
-3.3979 TIE	-0.4771
-3.3979 TIGHT	-0.4771
-3.6989 TIGHTEN	-0.3010
-3.6989 TIGHTLY	-0.3010
-3.6989 TILE	-0.3010
-3.6989 TILL	-0.3010
-3.6989 TIMBER	-0.3010
-3.6989 TIME	-0.3010
-3.6989 TIMING	-0.3010
-3.6989 TINY	-0.3010
-3.3979 TIP	-0.4771
-3.6989 TIRE	-0.3010
-3.6989 TIRED	-0.3010
-3.6989 TISSUE	-0.3010
-3.6989 TITLE	-0.3010
-3.3979 TO	-0.4771
-3.6989 TOBACCO	-0.3010
-3.6989 TODAY	-0.3010
-3.6989 TOE	-0.3010
-3.6989 TOGETHER	-0.3010
-3.6989 TOILET	-0.3010
-3.6989 TOLERANCE	-0.3010
-3.6989 TOLERATE	-0.3010
-3.6989 TOLL	-0.3010
-3.6989 TOMATO	-0.3010
-3.6989 TOMORROW	-0.3010
-3.6989 TONE	-0.3010
-3.6989 TONGUE	-0.3010
-3.6989 TONIGHT	-0.3010
-3.6989 TOO	-0.3010
-3.6989 TOOL	-0.3010
-3.6989 TOOTH	-0.3010
-3.0968 TOP	-0.6990
-3.6989 TOPIC	-0.3010
-3.6989 TOSS	-0.3010
-3.3979 TOTAL	-0.4771
-3.6989 TOTALLY	-0.3010
-3.3979 TOUCH	-0.4771
-3.6989 TOUCHDOWN	-0.3010
-3.6989 TOUGH	-0.3010
-3.6989 TOUR	-0.3010
-3.6989 TOURISM	-0.3010
-3.6989 TOURIST	-0.3010
-3.6989 TOURNAMENT	-0.3010
-3.6989 TOWARD	-0.3010
-3.6989 TOWARDS	-0.3010
-3.6989 TOWEL	-0.3010
-3.6989 TOWER	-0.3010
-3.6989 TOWN	-0.3010
-3.6989 TOXIC	-0.3010
-3.6989 TOY	-0.3010
-3.3979 TRACE	-0.4771
-3.3979 TRACK	-0.4771
-3.3979 TRADE	-0.4771
-3.6989 TRADING	-0.3010
-3.6989 TRADITION	-0.3010
-3.6989 TRADITIONAL	-0.3010
-3.6989 TRADITIONALLY	-0.3010
-3.6989 TRAFFIC	-0.3010
-3.6989 TRAGEDY	-0.3010
-3.6989 TRAGIC	-0.3010
-3.3979 TRAIL	-0.4771
-3.6989 TRAILER	-0.3010
-3.3979 TRAIN	-0.4771
-3.6989 TRAINER	-0.3010
-3.6989 TRAINING	-0.3010
-3.6989 TRAIT	-0.3010
-3.6989 TRANSACTION	-0.3010
-3.3979 TRANSFER	-0.4771
-3.6989 TRANSFORM	-0.3010
-3.6989 TRANSFORMATION	-0.3010
-3.6989 TRANSIT	-0.3010
-3.6989 TRANSITION	-0.3010
-3.6989 TRANSLATE	-0.3010
-3.6989 TRANSLATION	-0.3010
-3.6989 TRANSMISSION	-0.3010
-3.6989 TRANSMIT	-0.3010
-3.3979 TRANSPORT	-0.4771
-3.6989 TRANSPORTATION	-0.3010
-3.3979 TRAP	-0.4771
-3.6989 TRASH	-0.3010
-3.6989 TRAUMA	-0.3010
-3.3979 TRAVEL	-0.4771
-3.6989 TRAVELER	-0.3010
-3.6989 TRAY	-0.3010
-3.6989 TREASURE	-0.3010
-3.6989 TREAT	-0.3010
-3.6989 TREATMENT	-0.3010
-3.6989 TREATY	-0.3010
-3.6989 TREE	-0.3010
-3.6989 TREMENDOUS	-0.3010
-3.6989 TREND	-0.3010
-3.6989 TRIAL	-0.3010
-3.6989 TRIBAL	-0.3010
-3.6989 TRIBE	-0.3010
-3.6989 TRICK	-0.3010
-3.6989 TRIGGER	-0.3010
-3.6989 TRIM	-0.3010
-3.6989 TRIP	-0.3010
-3.6989 TRIUMPH	-0.3010
-3.6989 TROOP	-0.3010
-3.6989 TROPICAL	-0.3010
-3.3979 TROUBLE	-0.4771
-3.6989 TROUBLED	-0.3010
-3.6989 TRUCK	-0.3010
-3.6989 TRUE	-0.3010
-3.6989 TRULY	-0.3010
-3.6989 TRUNK	-0.3010
-3.3979 TRUST	-0.4771
-3.6989 TRUTH	-0.3010
-3.6989 TRY	-0.3010
-3.6989 TUBE	-0.3010
-3.6989 TUCK	-0.3010
-3.6989 TUMOR	-0.3010
-3.3979 TUNE	-0.4771
-3.6989 TUNNEL	-0.3010
-3.6989 TURKEY	-0.3010
-3.3979 TURN	-0.4771
-3.6989 TV	-0.3010
-3.6989 TWELVE	-0.3010
-3.6989 TWENTIETH	-0.3010
-3.6989 TWENTY	-0.3010
-3.6989 TWICE	-0.3010
-3.6989 TWIN	-0.3010
-3.3979 TWIST	-0.4771
-3.6989 TWO	-0.3010
-3.6989 TWO-THIRDS	-0.3010
-3.6989 TYPE	-0.3010
-3.6989 TYPICAL	-0.3010
-3.6989 TYPICALLY	-0.3010
-3.6989 UGLY	-0.3010
-3.6989 UH	-0.3010
-3.6989 ULTIMATE	-0.3010
-3.6989 ULTIMATELY	-0.3010
-3.6989 UNABLE	-0.3010
-3.6989 UNCERTAIN	-0.3010
-3.6989 UNCERTAINTY	-0.3010
-3.6989 UNCLE	-0.3010
-3.6989 UNCOMFORTABLE	-0.3010
-3.6989 UNCOVER	-0.3010
-3.3979 UNDER	-0.4771
-3.6989 UNDERGO	-0.3010
-3.6989 UNDERGRADUATE	-0.3010
-3.6989 UNDERLYING	-0.3010
-3.6989 UNDERMINE	-0.3010
-3.6989 UNDERSTAND	-0.3010
-3.6989 UNDERSTANDING	-0.3010
-3.6989 UNDERTAKE	-0.3010
-3.6989 UNEMPLOYMENT	-0.3010
-3.6989 UNEXPECTED	-0.3010
-3.6989 UNFAIR	-0.3010
-3.6989 UNFOLD	-0.3010
-3.6989 UNFORTUNATELY	-0.3010
-3.6989 UNHAPPY	-0.3010
-3.6989 UNIFORM	-0.3010
-3.6989 UNION	-0.3010
-3.6989 UNIQUE	-0.3010
-3.6989 UNIT	-0.3010
-3.6989 UNITE	-0.3010
-3.6989 UNITED	-0.3010
-3.6989 UNITY	-0.3010
-3.6989 UNIVERSAL	-0.3010
-3.6989 UNIVERSE	-0.3010
-3.6989 UNIVERSITY	-0.3010
-3.6989 UNKNOWN	-0.3010
-3.6989 UNLESS	-0.3010
-3.3979 UNLIKE	-0.4771
-3.6989 UNLIKELY	-0.3010
-3.6989 UNPRECEDENTED	-0.3010
-3.3979 UNTIL	-0.4771
-3.6989 UNUSUAL	-0.3010
-3.3979 UP	-0.4771
-3.6989 UPDATE	-0.3010
-3.6989 UPON	-0.3010
-3.6989 UPPER	-0.3010
-3.3979 UPSET	-0.4771
-3.6989 UPSTAIRS	-0.3010
-3.6989 URBAN	-0.3010
-3.6989 URGE	-0.3010
-3.6989 US	-0.3010
-3.3979 USE	-0.4771
-3.6989 USED	-0.3010
-3.6989 USEFUL	-0.3010
-3.6989 USER	-0.3010
-3.6989 USUAL	-0.3010
-3.6989 USUALLY	-0.3010
-3.6989 UTILITY	-0.3010
-3.6989 UTILIZE	-0.3010
-3.6989 VACATION	-0.3010
-3.6989 VACCINE	-0.3010
-3.6989 VACUUM	-0.3010
-3.6989 VALID	-0.3010
-3.6989 VALIDITY	-0.3010
-3.6989 VALLEY	-0.3010
-3.6989 VALUABLE	-0.3010
-3.3979 VALUE	-0.4771
-3.6989 VAN	-0.3010
-3.6989 VANISH	-0.3010
-3.6989 VARIABLE	-0.3010
-3.6989 VARIATION	-0.3010
-3.6989 VARIETY	-0.3010
-3.6989 VARIOUS	-0.3010
